3.307830396826016983e-01
-1.818289612462176685e-01
-1.695694548752070263e-01
8.164475881693071535e-02
-8.085644583274265162e-02
3.230181429509675073e-02
2.544408790021420730e-01
2.865737797207676962e-01
3.001614491077813640e-01
1.519050875321504290e-01
3.079454329647721145e-01
6.011625789053836044e-01
-4.398739350909071366e-02
3.041521704928512038e-01
1.869524639160337898e-01
-7.329423146643360143e-02
-8.166380794392009979e-02
-3.556837021168895996e-02
1.848567221677283878e-01
2.463012387179063997e-02
-3.891303320869221039e-01
4.514909138020422041e-01
4.362552256341125645e-01
-2.531751323927390954e-02
-2.986364211208759889e-02
-1.269323002840020698e-01
-1.040265911815335953e-01
3.448887953805728768e-01
-4.581235535902513645e-01
1.716564607467636061e-01
9.847286774657885988e-02
1.299417461446276401e-01
-1.271703409245569967e-02
-3.702145209399053394e-02
-6.912639454402924599e-02
-1.014765832674346807e-01
-4.568859991957367750e-02
-3.872070522930454173e-01
-9.612336707153404380e-02
-1.697402492214933889e-01
-1.080276220630909528e-01
1.767988010988798819e-01
-1.767355178974531760e-01
-6.483038926910568434e-02
1.968927737651723076e-01
4.920397845094769129e-02
8.707661173038254432e-02
3.803478944003179096e-01
-1.367702033172734366e-01
6.227596719511601098e-01
2.930801465875529713e-02
9.964972983822506514e-02
-1.647838631862865444e-01
-1.773007719999954435e-01
1.939345237089966367e-01
3.952311337239309830e-01
1.483506810055024161e-01
8.274033789693807650e-02
2.792196642188715106e-01
1.559548326439354482e-01
1.365607709194865405e-01
-2.456625678984920014e-01
-2.376809684792033361e-01
6.661150452253706833e-01
8.826966194001907573e-02
-2.715465452437839863e-02
-1.364686167507312142e-01
-1.931097101758411788e-02
3.001773712987682585e-01
1.626070671486106178e-01
1.184132478645186642e-01
-1.698303677678296708e-01
-8.305284343005787939e-02
-1.297489320542153518e-02
1.509248726643087728e-02
-1.112793606070168126e-02
-1.824710203652842588e-01
-1.900030366249313429e-01
4.659259659029259537e-01
-2.666258334634940552e-01
2.827338436383867656e-02
1.542555967109789372e-01
4.016224325457369293e-01
-7.195595631694816363e-02
-1.863237113924770538e-01
3.079250417693656927e-01
2.591071257866187083e-01
8.096085180199738551e-02
4.827513163580348099e-01
-1.932192957326105687e-01
6.491409054569038939e-02
1.119187331370664062e-01
2.086415702461246746e-01
-2.547765969526023522e-01
2.160769741727841253e-01
4.291125610310806970e-01
1.999857640628298905e-01
6.565435983833731726e-01
6.367847606595287979e-02
5.081890427673745325e-01
-6.915330442987333015e-02
-9.507135354282071626e-02
-1.412203038401208532e-01
-4.263330143820182050e-02
-4.041064129825423512e-01
-2.417183710917717443e-01
-1.011183549624876908e-02
-1.374127051079133965e-01
-1.617557991490412711e-02
-1.733228541897383346e-01
1.386990084272710956e-02
-1.083446512023086422e-01
4.565365519905132535e-02
3.483823028553291734e-01
1.060093075246562253e-02
2.060120235491200991e-01
1.893710618725848172e-01
-2.040071110063821080e-01
1.734573331168661955e-02
-3.834097931567517770e-01
-1.167246976248240663e-02
-4.992442902707564523e-01
-1.327609500913956853e-01
3.864431768919928678e-01
-5.787312754503910750e-02
1.164536273493901736e-01
6.051402755940457068e-01
-1.101857569591165042e-02
2.079154335318575963e-01
-1.180558720417339835e-01
1.165530976179249417e-01
3.452466952837198733e-01
2.119373765267676402e-01
4.489890109345296976e-01
3.316739183946270653e-01
3.503447629760789162e-01
2.132858529025846717e-01
-9.953329646095820937e-02
-2.804998147367996908e-01
-1.106395962513583020e-01
-1.330393461166576481e-02
-1.599949809752382601e-01
1.332805388077943076e-01
2.775674268427539837e-01
-3.179605730011059728e-01
-5.396774908549700767e-02
-1.613007687976158316e-03
-2.207000779231499954e-01
-5.816378811794125497e-02
1.652384008864655751e-01
7.387829265293992254e-02
9.784310300028409291e-02
2.089859115940902456e-01
1.055906951739019745e-01
-2.189194051663350959e-01
3.221472903835816970e-01
1.357906733132943911e-01
-3.533530739925324071e-01
-1.644998176289072245e-01
4.610596176962573206e-02
-4.136369153344342936e-02
-7.527067987757134204e-02
3.861219788221902094e-02
6.201890806471076212e-02
2.366692592587228416e-01
2.087616336643528803e-01
-2.428106604704605709e-01
4.225766784496947093e-01
4.679013937205918627e-01
3.605643924798663247e-01
1.504640153622958942e-01
4.930027086511943324e-01
4.179606241014258705e-01
5.576644627143516608e-01
2.290607398414716833e-01
3.743112407600071578e-01
2.171322498806501911e-01
4.587195650071582143e-01
3.247201862083342050e-01
3.729164434453001720e-01
4.095327829649025309e-01
3.461821512597478279e-01
4.313511206002306753e-01
2.171539661865048987e-02
4.182971044643033487e-01
2.462960923239909949e-01
4.474670890036890891e-01
1.222095957411440531e-01
2.449876490956037767e-01
3.860042761964391778e-01
5.045839169094503696e-01
3.620721234696396840e-01
2.918476672901072488e-01
3.708871457474461897e-01
3.431391579651625334e-01
3.613333140488903528e-01
4.241066623634628385e-01
3.387870173401003604e-01
4.492653479641797731e-01
2.030488783752003867e-01
1.615279973548851625e-02
1.854145032531737680e-01
3.010550522024834641e-01
2.505128110908099170e-01
2.017184390307036612e-01
2.060747620704994273e-02
1.225954119651962299e-01
2.886320522161130442e-01
2.794068128749189750e-01
3.321118608471693157e-01
3.497239005004438850e-01
4.054184220596102756e-02
2.566076446952620382e-01
-8.224969550374405802e-02
1.039244999104176337e-01
3.373145138735570425e-01
-1.884025653374301335e-01
-5.634831405424908790e-02
-7.753675371417086126e-02
-1.003971348145723252e-01
1.423958986440711505e-01
1.307158443747697962e-01
4.671977144299885309e-01
1.001633575216067523e-01
-3.236620313524702919e-01
-1.430995420573392130e-01
-8.681983252917427341e-02
1.615883528309453310e-01
-3.531043545531192263e-01
-6.119217611826569675e-02
-4.961989676648749237e-01
-2.249575561012342184e-01
-6.842952455141754209e-02
2.195569402444123297e-01
-4.614263653345339611e-01
5.176608498654938773e-02
1.842625873040452389e-01
2.796200207153204942e-01
-3.389017069465944526e-02
-3.377377741563115099e-01
2.511175471113951882e-02
3.081137926857788201e-01
-5.048266845747817477e-01
-1.056588418624038739e-01
-3.327285972197553954e-01
3.061277422189548347e-01
-2.925911251930515822e-02
2.134041061014015084e-01
-1.636531226858818633e-01
4.669970207242762211e-02
1.973833441055885818e-01
-3.849431377920553565e-01
-4.837335528402515218e-03
-3.201921104035289067e-01
-1.119583907707173975e-01
2.658405082358049343e-02
1.709017217149419732e-01
2.703162632723515868e-01
-4.465872772669163271e-01
-3.844842042597427234e-01
-2.276498232463631533e-01
1.383071814820546475e-01
-1.223767856281955946e-01
-4.211030689802386373e-01
2.378783526146562299e-01
-1.626769116295265216e-01
3.639167812312750494e-03
2.657166278741663890e-01
3.063707796220392909e-01
8.648990466061784455e-02
-1.392861324099121667e-01
5.014650945270677784e-01
2.709103674263144048e-03
-5.367434352285672255e-02
4.148855238913644050e-01
1.760300568899071660e-01
-1.816733975452455158e-02
-1.177885519708739837e-01
-2.639000873337073519e-03
-1.684239063232580713e-01
-3.024902459565558255e-01
9.708807489881231267e-02
1.516547899654267229e-01
-2.218738961086787753e-01
5.031432786521704559e-01
1.464648974817563398e-01
4.564872477801422412e-02
-5.240002117362856093e-02
-3.052317742864567585e-01
-1.806309227831660869e-01
-7.516948076469009976e-02
1.042131034954966035e-01
2.265220913063843988e-01
-2.641215509816721152e-01
-1.045847777411088864e-01
4.693629730931853615e-03
1.355572308837206807e-01
2.199657418091653105e-01
-1.767689915927641020e-01
8.467504697771303934e-02
-7.010375047676424554e-02
5.075283600664202144e-01
1.769872572004578259e-01
1.691021105070428720e-03
1.231997505638334212e-01
2.387525847057998807e-01
6.080041490500999457e-02
-3.553904707245866129e-02
-1.285045180934634157e-01
9.502729302875279060e-02
9.252076474566156561e-02
-1.753318107914667023e-01
5.216803323374187285e-01
-4.458735511797966983e-02
3.770527550160686636e-01
4.148627978639942149e-01
2.643230224009325280e-01
6.393473482757588977e-01
-1.573575716937238578e-01
7.483566539498505421e-02
-3.191507627274844938e-01
-3.425073102856160956e-01
-4.091833507034262074e-01
-1.210426193237875564e-01
-3.598143836817942476e-01
-7.123233477471305197e-02
-1.008093640109528066e-01
-5.278786539135135042e-02
-6.443396315909512284e-02
-1.008046984853801786e-01
-2.931230454493948326e-02
-4.252931137654434451e-02
7.596316385998344578e-02
-6.526561560936371131e-02
-1.117262318874177457e-01
-2.075293899977581902e-01
-8.339185853499450629e-03
-3.159372143108353237e-01
-1.593730407816409123e-01
9.369560430386796035e-02
-1.457448041745783296e-02
-1.438140588998369218e-01
-2.216436231220267061e-01
1.018487215496646781e-01
3.695817911722039384e-02
1.108812804706196253e-01
5.486807469979602253e-02
-3.013008907844848955e-02
-1.028667463609276717e-01
-3.809713833806674388e-02
-1.082845596987677822e-01
-1.342869959516576894e-01
-7.401381265916115448e-02
3.353811544587997906e-03
-1.614626876559483448e-01
-4.663310354833954258e-02
5.992655588767252794e-01
-4.513594461835796490e-01
-1.849621563804839178e-02
1.428200857366601021e-03
2.148851906383256443e-03
-1.145648717746199224e-01
-1.966500304308666514e-01
-1.975909900114142248e-01
-9.825090509235860636e-02
-5.036155995789408368e-02
-3.662777464964985658e-02
-2.524810410805267136e-01
-2.173147682090097177e-01
-1.798986015689937601e-01
-1.155046772865541416e-01
3.525439866176320602e-02
-1.597604814160029085e-01
-7.294466882658878770e-02
-1.520218228545559824e-01
-1.673446456065255106e-01
-1.030640788193471630e-01
1.262874653969941752e-01
-8.872436115746651364e-02
-1.109936500052564334e-01
1.149087445817198070e-03
1.423577710822603558e-02
-2.548338667940939772e-01
-3.094411218334204294e-01
7.446498786906437239e-02
-3.533209536841203091e-01
-3.889446083330475035e-02
-1.892589769408339340e-01
-4.371583828168578573e-02
-2.647495644984551935e-02
-2.689779924424896551e-01
-7.072351557555839330e-03
-4.909334678033504262e-02
-1.408961700764268469e-04
-2.909118327787486025e-01
-1.448346226445946516e-01
-6.561601140231429485e-02
-1.755746415227918134e-01
-1.151629803660778606e-01
-7.701961299741580391e-02
-2.996971158480354336e-01
-4.129791841524617368e-02
-3.173784538181174258e-02
4.797181281343149140e-02
-1.857198814213842364e-01
-2.939154643103706332e-01
-2.556842476460191582e-01
4.693126837763812453e-01
-1.427839097910553190e-01
-1.286360294410560656e-01
-3.645067013026420111e-01
-4.417453107311977156e-01
-2.240072179307163180e-01
4.369928784756552109e-02
-1.503737191813269425e-01
-4.743211345585101463e-02
-2.103919248232076211e-01
-2.778756113905812841e-02
1.070417343953914691e-01
5.666482825677544855e-02
1.100828099724529413e-01
-1.191545004234750293e-01
2.342424035380068215e-01
-1.636588375080013369e-01
1.597740417613450759e-01
-8.459844129203261676e-02
5.817555585732292478e-01
2.552728767654228736e-01
2.856398171944505293e-01
2.060579790071118134e-01
5.205052370237285564e-02
1.642254302044444669e-01
1.192033514679001344e-01
1.415524988430953701e-01
2.831111444518304432e-01
1.534051713097194132e-02
-3.970657595332018758e-02
-4.669436518156611093e-02
-3.908428447399627664e-02
-9.708811907715383938e-02
-2.902672332118418352e-01
-3.102271744055990280e-02
2.040384287367484339e-01
-1.558948237432537243e-01
3.357990946690277839e-02
-3.792709724375628588e-02
2.265740733517666861e-02
-1.073529330354719008e-01
-2.805109630227105577e-01
-2.974057573042479530e-01
-3.079524274245857424e-02
-3.054423013263112274e-01
-1.240377559926764128e-01
-7.543862268094696233e-02
-1.093600491509399419e-01
-3.204561565192567407e-01
-1.865044792616047387e-01
-1.469884528359248210e-01
1.178510428535625987e-01
-8.086939496959814899e-02
1.091938790322981648e-02
2.152268330051484158e-01
1.652065922157653910e-01
4.377755476408414642e-02
1.339731594315420743e-02
6.791221569928568291e-02
9.549170224130831830e-02
-6.001269065304504213e-02
1.565255926794492658e-01
3.545140536788191077e-02
8.135792623267022738e-02
-3.406293986874555091e-01
-2.594376643353921152e-01
4.280454978729538729e-01
3.273644143237050552e-01
-3.396547140399179820e-01
-1.020057790816425725e-01
3.005147309801169397e-01
5.821303031508037185e-01
5.167747523707039159e-01
9.554606854445293895e-02
2.575801421066779562e-01
6.104941030483045372e-01
3.821535430496784125e-01
1.043815712911917160e-01
8.504924744903617773e-02
1.996837751734232280e-01
2.423183092160565988e-01
1.866409220370435496e-01
1.826522077498672347e-01
1.142311745782857296e-01
1.202976500239741481e-01
2.247276842061695645e-01
1.473991518105494947e-01
3.046305767479344159e-02
3.645345482352984057e-01
9.260539843421679296e-02
4.062973488791910004e-01
1.614131650893712022e-01
1.196146914376468168e-01
-7.017965028092704172e-02
8.107068696460655033e-02
2.646287348246139162e-02
1.258926404933582155e-01
1.851580869402830454e-01
1.496663261520344290e-01
1.886673004571406687e-01
1.356942844506937307e-01
2.457281461951363877e-01
2.390380812877087591e-01
4.896308426824642068e-01
1.626451946271250115e-01
3.553169476723965214e-01
2.575841224969509513e-01
5.176687251553715452e-01
1.658032078172704815e-01
1.356433212093582918e-01
1.647212542417655912e-01
3.183895774116823341e-01
3.228207400313023445e-01
1.750513791150054566e-01
1.809110785402704216e-02
3.472981076269049949e-01
1.384686041549674507e-01
2.141237795776916863e-01
1.878919984291189671e-01
3.593900303919495554e-01
3.524461180818725392e-01
2.405115075523916734e-01
2.304703886386885447e-01
2.512834135947680791e-01
-4.515823448022696085e-02
3.764588939578357440e-02
-1.179485917207242357e-02
-1.566407430625434971e-01
3.008206651039596613e-03
8.722168248174869132e-02
1.412655867293697264e-02
-2.305364562482986046e-01
-3.074480258627896867e-01
-1.902188229567799427e-01
-2.745540097034235294e-01
1.645733278615512177e-02
-3.892938151039718186e-02
-1.084797305334899015e-01
-3.174073947732837242e-01
-1.281211129293385442e-04
-9.063383876984616727e-02
5.071052576650629529e-02
-1.178839265447428619e-01
-1.333342785258186669e-01
-1.681151135580225831e-01
-1.100319300250249960e-01
-3.053726725377830520e-01
-6.422698387011639698e-02
-8.464540337126018332e-02
-4.680878030339619134e-03
1.303826924417577915e-01
-2.444405631936555079e-01
-1.467850031378363784e-01
-1.794125967803278654e-01
-1.190219916431852210e-01
-1.947633868831124548e-01
-2.133848533636285294e-01
-1.279735798209242215e-01
3.010866493859479937e-02
-1.214267940114768379e-01
1.569338239164527748e-01
-3.021477783369975745e-01
-1.070326779374722870e-01
-1.910256998014226992e-01
-1.778041023685607291e-01
-7.754000125412152666e-02
-8.234809781939926576e-02
-2.643915303322688093e-01
-2.112392534362431129e-01
-2.722508454693342572e-01
-1.815581632176020421e-01
-9.791229279673931141e-02
-3.768687132977508597e-02
-4.482153651418982476e-02
7.359720921046614128e-02
-8.480457127678447948e-02
-7.668968327214338923e-03
-1.693949565938840385e-01
-1.793341606488296214e-01
1.650187974063186541e-02
2.436715785056589867e-01
7.444444922953338817e-02
-1.242144525234230024e-01
5.218222172221409494e-02
-4.260267906274955996e-02
-3.805774797557709161e-03
-4.259284658412188646e-02
-2.143270252061151571e-01
-1.353983208055824505e-01
-2.997357183586018547e-01
-3.741765126738223063e-02
-1.237074645699535493e-02
-5.628903808965968203e-03
3.021306112226743862e-02
4.511401290172160211e-02
5.776226739285214018e-01
2.268030377930113917e-01
-5.669217383962575629e-02
1.780084507660428805e-01
1.726307287955778369e-01
1.410352797068595010e-01
-2.938153758126611434e-02
5.683829979720262521e-02
1.104181723127140996e-01
9.678904356152336075e-02
1.060652676687306312e-01
4.542720386077742784e-02
1.830265539921571150e-01
-1.109653093113404689e-02
2.883743311697202841e-02
-1.228643825739713334e-02
-1.448244325106990693e-01
-1.383649255263115774e-01
-2.907697894012572018e-02
-6.645835860378596083e-02
-1.979445644292445183e-01
-3.290752668164001471e-02
-2.000048737046421499e-01
6.602764536549421762e-03
-1.238196456562063175e-01
1.134183108490649863e-02
-1.174224005176364438e-01
-8.063718185797148774e-02
8.445587204091312139e-02
9.157914258646795980e-02
1.648501448897514154e-01
2.558398642579309823e-02
-8.702714928362262348e-02
-1.386281687877292390e-01
-1.512732634380778152e-01
1.283772569388710039e-01
7.659180257223190125e-02
-1.430892042060001590e-01
1.794504215118507828e-01
-1.593211572010136499e-03
2.067813649188824602e-03
3.049128065987233294e-02
5.300362877073564599e-02
1.046105668959827345e-01
1.951821204709702218e-01
1.862419338912345290e-01
-2.376977190213541702e-02
-1.504779205527917267e-02
4.034310350831359915e-01
1.901693260132635566e-01
1.216228150527211005e-01
3.213214643944048987e-01
2.506275646882537012e-01
1.753398932423978207e-01
4.611176368857672903e-01
-8.194908624501677508e-02
3.108344108478749424e-01
1.004817216314038281e-01
2.790227804347015783e-01
-9.629021762394231188e-02
2.336178816553327042e-01
2.399492399191351100e-02
-2.798243428458551674e-01
-2.994561403548457595e-02
-8.087054564743603735e-02
-1.047849096288131290e-02
-9.632807942344534524e-02
-1.100985044250385736e-01
-4.235194200534294490e-02
-2.691143200662390322e-01
3.928898984320805532e-03
-2.031983490931354164e-01
3.010877634494909735e-02
-1.444093999949670470e-01
-1.280285948432216027e-02
-5.071613200734991223e-01
-2.414312344721229742e-01
-1.482116837460724090e-01
-1.395841447284436598e-01
-1.831825967353483409e-01
-2.813279751709232279e-01
1.706218582467748379e-01
-1.634729151901052058e-01
2.162377307696039183e-02
-3.956920549466192982e-01
-3.089275559307115282e-01
-1.884333016257584426e-01
1.259991259755918226e-02
1.195717330446069773e-02
8.710022564348145202e-02
5.873172640084974028e-02
1.517047515506088906e-01
-6.472818256545737059e-02
-2.255361922240197436e-01
3.843292735551384620e-02
8.458798628266296638e-03
9.776527588249665779e-02
-1.055681249730015397e-01
4.649815802675332649e-02
-1.345398670697856569e-01
6.679873526475926457e-03
-1.322081632360847803e-01
2.734675618974787836e-01
-4.446514059219886655e-02
1.499053584087674251e-01
-2.090004557814238717e-02
2.331285139795302164e-01
3.842760945124601424e-02
5.530834099075205602e-03
-1.999166968851282256e-01
3.448818173115002911e-02
4.625201387805225224e-03
-4.032303774959536402e-02
-1.481553233095276867e-01
-2.863318158686857240e-01
5.511812008369510602e-02
-1.723387190725854390e-01
-2.100334284999458012e-01
-2.742795227851806475e-02
-2.601636652425771135e-01
-9.120812433434616340e-02
-2.511742576544075470e-02
-8.992707844074082635e-02
-6.935753944499256640e-02
-3.539321841542810050e-03
-1.651249750493336554e-01
1.037580880123236370e-02
-1.836986881302816316e-02
-1.402837653468896606e-01
9.020061095949637175e-02
-3.163991447136298152e-02
-2.024269585909683478e-01
1.992668664306113113e-01
1.067525449036454965e-01
-1.358888709109625781e-01
-1.311635920900773022e-01
-1.021570212788304316e-01
4.886405514148551427e-02
6.500567953651262623e-03
6.732699192568086799e-02
-2.460619746403285846e-01
-5.367197070942504589e-02
5.375559546469876188e-02
8.076748940819175604e-02
-5.265051600945625659e-02
-2.452419055480223598e-01
-1.023512531314878793e-01
1.801326626920411456e-01
-7.709326168686087000e-02
-3.959414024958537309e-02
6.218524151919593151e-02
-6.158550366220933575e-02
-1.666015581088698128e-01
-3.675600887190797472e-01
-1.491231099523312661e-02
-1.695250317884421098e-01
-8.380452185886383409e-02
-2.434412273140553473e-01
-1.021292230599178952e-01
-9.483690867159719207e-02
-6.506356355574494099e-02
-1.073477049245084580e-01
-1.352501961932970342e-01
-2.084907743782333372e-02
-3.621237548897499742e-02
-1.769783124247935879e-01
-2.294932640849645933e-01
-2.064553663594914656e-02
-2.488439314018204285e-01
-3.775727091484046977e-02
-6.541522966331685118e-02
-3.853218870102978477e-02
-1.007364169917844693e-01
1.263561230108104991e-02
-3.042051736005169787e-02
3.788697447991273143e-02
-1.926760256691422424e-01
-1.311027726830357454e-01
-1.189356142116024806e-01
-6.592718495285401770e-02
-1.755980008324810326e-01
-1.237257753979438372e-02
-1.398543321362303860e-01
-6.413519938085199268e-02
-6.785268414643592927e-02
-2.395483676359041678e-02
9.393890720878189660e-02
-1.695268925932913451e-01
-5.812456573674330829e-02
1.714471862745459707e-01
1.394229199349661039e-02
4.723027476409350639e-02
-1.483135437739080131e-01
-1.187273884472507812e-01
-9.545091376985198606e-02
-4.576135129819335068e-02
7.432637769680092849e-03
-6.875526880793733642e-02
-1.368226819051129306e-01
-1.706617428331388409e-01
-8.307775231688671602e-02
-3.425845520690289081e-02
5.391583656339046793e-02
2.679097457861453341e-02
-1.104653283520139889e-02
-1.238723910565214248e-01
-1.282319725047692260e-01
-2.116376495465153162e-01
9.408808937008905637e-02
-3.822748055175663462e-02
1.485217321736508056e-01
1.148630248513591266e-02
-2.234713761329137072e-01
-1.035071876400732310e-01
-1.843552600454836064e-03
-1.201874417014418273e-01
-2.378120039266482522e-01
-3.499831104084046851e-01
-8.885551942193983810e-02
-2.029808537598207577e-02
-3.394727405294030720e-01
-2.166339434715597312e-01
-1.358358113257190081e-01
-3.909411987067657468e-01
-2.528826739416075720e-01
-6.819075207439855013e-02
-1.857783795800884985e-01
-8.942829767364124730e-03
-4.000046420076573961e-01
-1.498873816489433575e-01
-4.424499062064205651e-02
-1.541970257397177468e-01
-7.512920342416133830e-03
2.170259772781699820e-02
7.793886989317204417e-02
-2.191355018888628547e-02
-1.555640670564640768e-04
-1.531241216524679150e-01
-1.971756014970813820e-01
-4.388855798948292780e-02
-1.120690427469222539e-01
3.179060652589004582e-02
-8.003093619978492168e-02
-1.428410253844062672e-01
1.024780118833328174e-01
5.753345056446563556e-03
-2.281777933382700685e-01
1.715440044662059835e-02
2.683696749384240077e-02
-8.948484847958786126e-03
7.280414709374580240e-02
5.942640537072094165e-02
9.492199366789891291e-02
9.077361413983106586e-02
-8.277835193641915751e-03
-2.066832032723599569e-02
-9.452627948686981307e-02
-9.832199008399761242e-02
-2.191281534144791029e-02
-1.127667613258072077e-01
5.454504388700198714e-02
-2.163355391185984578e-01
-4.447947329716174340e-03
-1.537635577876248494e-01
2.434718818314721145e-02
2.984921691175171365e-02
-9.041313722500900207e-02
-6.008957921206849878e-02
-4.130611103892926628e-01
-1.050082999165365266e-01
-3.126502383688174458e-01
-6.544352205650372234e-02
-1.720702198306928721e-01
-2.666310221048847073e-01
-2.806508165080447426e-01
-1.342675177293032041e-01
-1.620793458854357660e-01
-1.123794021638921115e-01
-1.630471157712600483e-01
-2.284156610386928535e-02
-2.772407616404141267e-02
1.031217134955149384e-02
-8.118937074988905045e-02
-1.219303138873712028e-01
5.177846013484248278e-02
-2.945263182276615724e-03
-4.931139914631567367e-02
-2.641576402384247513e-01
-4.048845344613448416e-02
-2.838795692053099895e-01
-1.170146729274020719e-01
-1.126547854468922666e-01
-1.173419329978262204e-01
7.754729464207020528e-02
-2.008956090401440089e-02
-5.521636321504702627e-02
-9.744107694316044010e-03
6.768799414931528369e-02
-6.036627361867537983e-02
1.292085421943930668e-01
-4.075141440388718728e-02
8.869688379273273733e-04
-3.905429443446992166e-02
-3.421763927317157672e-02
-1.728307466542403428e-02
-7.958115628859480095e-02
8.488003972480269096e-03
-3.269935537997303160e-02
-3.139101111855723686e-02
-4.673496469230589700e-02
7.032022461575609951e-03
-4.833631812533006195e-02
6.299099994175542949e-02
-6.691081987910103834e-02
-3.288646497441618383e-03
-2.120439739030212725e-02
1.563147288038776173e-01
-1.637517601888912461e-02
1.403248390929610900e-01
1.125061188985556626e-01
1.701285668424058206e-01
-7.493351965444092211e-02
-4.825192271331498611e-02
-3.382493804363855827e-01
1.225540076918572863e-02
-2.615343723826282218e-01
-1.875454248529659917e-01
-3.946738152659784449e-01
-4.084887114817509213e-01
-1.563102964649936977e-01
-1.494321411781235343e-01
-2.593078065507145036e-01
-2.626816605781637226e-02
1.189182295640093950e-01
2.286259954783794249e-02
-1.435665512958061163e-01
9.407589747898965904e-02
-2.252760918926780265e-01
-9.789365459196862351e-02
4.639275059813218610e-02
4.301768627394779443e-03
-1.292623876702763686e-01
1.007604798195245455e-01
-1.395835837767174792e-01
1.263883795138947240e-03
-2.875654294050040694e-01
-1.471988723373641728e-01
-1.270145974930681487e-01
-2.292309651459716324e-01
-1.178636318060145016e-01
-7.215018698409317310e-02
8.683225889098176303e-03
2.111295836756247810e-02
9.376026846376707413e-02
-1.475622933335952840e-02
4.170955140757431900e-02
1.112717009200944913e-02
8.239471913456098903e-03
3.103760155218092398e-02
-3.081994137773888878e-03
2.046522580628296062e-01
1.321552466680445646e-02
4.079411423508297330e-02
1.273831673495385841e-01
-6.635103603144421047e-02
3.521400139041490351e-02
1.285963616750736838e-01
6.165758441331189825e-03
6.596842552337105203e-02
-7.851901002610839342e-02
-3.775398286162735123e-03
-8.797675581984318316e-02
-1.033664116031193098e-01
-8.922180548725289206e-02
-2.545751578320768482e-01
-1.401715570361998231e-01
-1.139178302224809619e-01
-1.255279751217004171e-02
-6.900637055072579573e-02
-9.163124039448504454e-02
-1.189510481042812956e-01
-1.644173002650895221e-01
-9.722417309145181541e-02
-1.299120397289334206e-01
-3.566066787254044274e-02
-4.374069907910968502e-01
-1.298846160912656145e-01
-7.454510843925145347e-02
-1.691573521111513212e-01
4.015087199772865434e-03
2.118666276081160663e-02
-3.666821081401865773e-02
-3.478080607855230794e-02
-9.857964792818997568e-02
-1.175726324734426148e-01
-9.013564208795192545e-02
-1.313166828624237614e-02
-6.025481925927429067e-02
-8.929687556570030382e-02
-5.661241672636684041e-02
-5.427455643554485870e-02
-1.083587351093860326e-02
4.843404214982632849e-02
-1.037666166652561478e-01
2.195824730547195625e-01
1.898109272756206417e-02
2.293122294875189066e-02
-4.617898902742200579e-02
-1.347465160881385904e-01
1.152479975957140385e-01
-2.631396708062505585e-01
-2.403629498424405264e-01
-5.315184670056905675e-02
-6.025005540287241279e-02
-1.043528798676581076e-01
-1.004984332701659849e-01
1.296581405390748176e-01
8.801862142400146416e-02
5.873675945681278154e-02
2.438448660767239280e-03
-1.930191142881076682e-01
-1.237195459246112107e-02
-1.291342685037637217e-01
-1.440029205629687892e-02
-5.617548727581078705e-03
-2.993044964308980704e-01
-9.766857295573144748e-02
-1.379078423271724307e-01
-4.157275590759482164e-02
-8.146470434823446793e-02
-1.050538675690670526e-01
-1.663727570193812566e-01
-1.203470365361347244e-01
-8.737205714213605590e-02
-1.641391358631690556e-01
-5.352683148769574184e-02
2.650981903460375433e-01
-1.647416181719500439e-01
-1.625119268099958214e-01
-5.560676075712629729e-02
-3.762604249843175958e-02
-3.777946343737204060e-02
-4.902213990049108377e-02
-1.131533189745784068e-01
-4.434913857242218649e-01
-1.839135655274576897e-01
-1.779523359479937838e-01
-7.432466198059243905e-03
-6.909302835430294887e-02
-1.379833912227652060e-01
-5.546386453903939112e-02
-1.903481459137714438e-01
-2.359453457418198008e-02
-6.332135062048527795e-03
-1.459607414185463414e-01
-1.551929202488675635e-02
-1.057982915675557134e-01
-1.406109836444079386e-01
-8.385108090953448390e-02
4.083502879492587750e-02
-8.550811644225568900e-03
3.747458224433385110e-02
4.364668137456591962e-02
-4.935038334467829052e-02
2.797279451153879964e-02
-5.594117324874891758e-03
2.705709208861754173e-02
8.356387408766981217e-02
-4.897534292918843263e-02
-4.068228739538398003e-02
1.299979309702661290e-01
-2.500043756173057630e-01
-1.089425989247797856e-02
-1.027963405590099494e-01
-1.883893981565338410e-02
-9.036936704464509917e-02
-2.718558185774135327e-01
2.058111834693348782e-02
-3.250325837196077483e-02
-6.740672700052621757e-02
-6.178851843246192799e-02
5.577990299990007173e-02
-3.740608941019294038e-03
-8.726520900469790509e-03
-7.233508430739833683e-02
-9.169235149425510045e-02
-2.736011923733349671e-01
-2.126435720705112109e-01
-2.032003132401518086e-01
-1.233750403054481581e-01
-3.393022799473548873e-02
-5.386624409440426281e-02
-1.808324301039660742e-01
-2.817233276580015378e-02
1.592272877697187630e-02
9.707275952605538827e-02
1.168197232882420278e-02
-2.607700615199884039e-02
1.575958090875990147e-01
-2.325590052110994288e-02
5.362630204344237539e-02
4.176743915924399815e-03
-7.965508370116013148e-02
2.271959051811974460e-03
-3.477872036701965680e-02
-2.233020065565652704e-02
-3.293207373759146628e-02
-1.307287081751651314e-01
1.601769976525272213e-02
-7.781709484645471520e-02
-2.407997572715019075e-02
-6.163037257115393762e-03
-1.319778281059119478e-02
-1.222214636124764955e-02
-5.793220934133804650e-02
-1.130709353884225554e-01
-2.027036193166495762e-02
-4.986450906458433224e-02
3.310829969845797277e-02
5.368575674451692842e-03
4.092380879090948970e-03
4.985703440131324798e-02
2.976725605249871953e-02
-9.323604932547954749e-03
-2.966928340903418962e-02
-3.661640918862686667e-02
5.479755359232620776e-02
9.756517523846071696e-03
5.001027069813687720e-02
-1.552683148281834569e-01
-1.318808388188583425e-01
-2.110850294767218152e-02
-1.305237585736921946e-01
-1.371614202134398275e-02
9.243655109270537684e-02
7.146789739774487941e-03
-1.938794397754739218e-01
-1.354356185366862864e-01
-2.889856435869145659e-02
1.973162098532008912e-01
6.876726678769064238e-02
-2.190311204599150463e-03
-7.094501642005038300e-02
-2.519893260995448650e-02
9.662847211496390643e-02
-1.356443276130201922e-02
7.998164912327944409e-02
3.441669758379785685e-03
-6.978226863755605802e-02
-2.507260951114497795e-03
-1.563017881511078941e-02
-2.304238007914904962e-02
-5.331390197907684252e-03
-1.022794576722796389e-02
-7.351305584080070066e-02
2.380574609019285234e-02
2.326298489513100275e-03
2.994839501684618335e-02
-6.055895199243731958e-02
-4.436851817201376696e-02
-9.485126915499252076e-02
-4.967673141440520634e-02
-1.301125099314687783e-01
-1.415634102339700419e-02
2.930397061956302451e-02
-1.144031214944465739e-02
7.832451884042751500e-02
-7.878036204682153931e-02
-6.865464167551703356e-02
1.359246210626884228e-02
-1.434261950572889542e-02
-2.792266165514149800e-02
1.217679377305802384e-02
2.001176017103767357e-02
-4.588637832954242657e-02
-1.191309015483104083e-01
-6.271204863847552879e-02
-7.481255812691119111e-02
-5.495751768657101272e-02
-1.178681557248207057e-01
-1.019681946986248644e-01
-7.794924245851111988e-02
-1.099452960067382468e-01
-3.325054338102395503e-03
-1.632585831103921994e-03
-2.187268139720284499e-01
2.186610132456697289e-02
-3.695809310084200577e-02
9.511426807733317640e-03
4.493898289598118566e-03
6.295479073939461157e-02
1.530426047736569428e-01
-5.180311883535207614e-03
-7.769808182736487844e-03
-6.719943067061155163e-03
-1.812012210630808626e-02
-9.808470857279870392e-02
7.442642629340242427e-03
6.137639957681074489e-03
1.467259577048750895e-02
5.556740540418107777e-02
-2.287235353311763836e-03
-4.924417770422069573e-02
-1.149784767364790544e-01
-1.166185634497656359e-01
-8.382382295119626681e-02
-8.484804505219856186e-02
-1.527825549909326841e-01
-1.711460827539769761e-02
-2.206531123512674164e-02
-5.594309552111519784e-02
-5.720932780482863161e-02
-2.263059088294342158e-01
-1.371612861414778575e-02
-1.370164008758039120e-01
2.636638877256966464e-03
-6.874321977239357395e-02
-5.111297239495165429e-02
-7.098980324442084877e-02
-1.444100467804659838e-01
1.718169618642866828e-03
-7.008343257705876295e-02
-1.133403216889561638e-01
2.209276131712456515e-02
-5.710519386476564652e-02
-2.344375443976527695e-01
-9.492374440794103252e-02
-1.605861066937458170e-01
-1.319325880798720985e-01
-1.066300640701003943e-01
3.928263675505383815e-03
-4.244723788264215258e-02
9.447604376041840099e-03
-9.853725357313292479e-03
-2.123074831982856014e-02
-2.126715743616193824e-02
-9.917122323522832572e-02
2.171182737299420795e-02
-1.992763970696591683e-02
-4.785019941914880892e-03
6.138129601839500092e-03
-2.014886678665746833e-01
-2.612954288748865761e-03
-6.169803123785918414e-02
-4.784654416820856293e-02
-1.029918616578414658e-01
-6.506255775187252954e-02
-4.922910148306126887e-02
3.283297824558719519e-02
-1.602285677891833807e-02
-2.991179346260754157e-02
-1.082784326358741389e-01
-4.425114480421050989e-02
-1.900636277077809647e-02
-3.022002744647076314e-02
-1.493736451435528356e-01
-3.588238414359889300e-02
-2.078930741620382133e-02
1.742806446846678278e-02
-2.377046170254831087e-02
-8.403535395233255323e-02
-1.770384184173783709e-02
-6.392735978045850642e-02
9.555445306348664620e-04
-1.048352332975735768e-01
-8.674488986147496292e-03
7.442017006520892757e-03
-7.079735509993392850e-02
-3.051379446628880998e-02
-4.007626922785032658e-02
-8.044517641683782139e-02
-9.746340236404214818e-02
-2.007633132180691032e-02
-4.377635823478451260e-02
-1.160659656469721331e-03
8.586550389641265518e-03
-5.093643313984545784e-02
-6.636476717903358469e-02
-2.838677969688728833e-02
-2.938209268216437561e-02
-9.420908198249434984e-02
-1.261801625957895967e-01
-7.150174542093744312e-02
8.151521549787196785e-03
-5.515103434092669121e-02
1.930299533729410225e-02
-5.069791356432351570e-02
-1.389329527176678264e-02
-1.243960084841138625e-01
-2.913811382833923769e-02
2.459759658358362522e-02
6.060252719278461792e-03
-4.605573317339525102e-02
-3.162011874728323790e-02
-3.312193299661923829e-02
-1.403770881348655533e-02
-2.672087938890126829e-02
-7.693715029363892843e-02
3.403832645130801943e-03
-1.840715311063190977e-03
-1.300518044092189573e-01
-3.958188136972786916e-03
-4.406945005644367919e-02
4.663038474943145134e-03
-1.584789266346604136e-02
-1.514769891622894799e-02
-1.129696745480815792e-02
-1.129059662778673055e-02
-9.042478926411456897e-02
-1.006462564296937805e-02
-7.510049339952534417e-03
-1.040608451835660780e-01
-4.750989708645665666e-02
-1.020520273933097320e-02
-9.024699858375756500e-03
-1.868337422685209526e-02
-3.148466171064334684e-02
-4.066663621798225631e-03
5.716740663457637456e-03
-4.677264129720385549e-02
-6.629662280376938388e-03
-2.340823226184952227e-02
-3.335208497789785616e-03
1.659462843143356611e-02
-6.485306008291418477e-03
2.356723438781296170e-02
-3.599697356473206215e-03
-3.215816745023937495e-02
5.718509888809644032e-03
-1.539373253947702753e-02
-2.088997431666779134e-02
-7.930390623004521938e-03
-4.161292790242742540e-02
-9.515241797651459443e-02
-8.750367599134611929e-02
-9.721084683671591190e-03
-4.054558176624921059e-03
-3.672564459150308609e-03
-2.896187961689587927e-03
4.544876097700541878e-03
-3.245627323674832657e-03
4.079340345426903103e-04
-1.282572586054694756e-02
-2.243740246260127191e-02
-1.627139975326567442e-02
-3.353047242118734842e-03
-3.420920902368907498e-03
-1.181502468154274621e-02
-1.547540048039584663e-02
-3.744808520580393540e-03
2.378666111370217502e-03
-1.430789594004275994e-02
2.877451368441422391e-03
5.906805733058586270e-04
-6.927103571844772482e-03
4.459372566794910994e-03
-8.169666130314922822e-03
-1.554902219406709488e-02
-2.640024863212010482e-03
-1.179059265169503899e-02
-3.888647430453267499e-03
-3.527271064412492059e-03
-1.411872948664401502e-02
-3.366672035197887814e-03
3.286872635545132204e-02
2.747723725706347625e-02
-1.161251674402497859e-02
3.275324321071828877e-04
-1.626375389976272151e-02
1.158208930675319603e-02
-3.673778090663428527e-03
-1.156898227912517459e-02
4.857931949897776117e-03
-4.989100466054013222e-02
1.045067143334474282e-03
-3.090521999723952473e-02
-3.604809074680478953e-02
-2.506188739387409103e-02
-3.762737081311193221e-02
-2.449915917024904008e-02
-3.234402662511774024e-02
-1.535045168593290182e-02
1.342060275634225685e-04
-9.188905851567544594e-03
-1.382113115478651386e-02
1.368035500485349082e-02
-7.694026678337817417e-04
-1.081781229017829242e-02
4.023742712279876864e-03
-2.557199201087654097e-02
-7.752345840665403331e-02
2.920415198850801267e-03
-7.592510939770333832e-03
4.683772621576025308e-02
1.005885821540821595e-02
2.079731326233028033e-02
-4.260121121067178551e-02
-2.760357739669995480e-02
-2.604905153958664288e-02
-7.145443757556190975e-03
-1.775098613661103483e-02
-3.180494387383284854e-02
7.038732995854516707e-03
-2.701574825338789055e-03
-1.805048654380165818e-01
-2.243327807016847267e-02
-8.376598041286788948e-03
-1.641852007022231302e-02
-1.266573552002886460e-01
-5.638310186420165959e-02
-4.227188774106885316e-02
-1.001741983442874968e-02
-5.213618311151085871e-02
-4.685620283644012507e-02
-1.662172350643560670e-02
1.729441063768406839e-02
-1.198004678185666388e-01
-2.683650592019769937e-02
-5.794782497431454592e-03
-3.383460107035487358e-02
-3.009281821077116129e-02
-2.526863631820003286e-02
-4.071900455062198859e-02
-2.114123911781996476e-02
-2.861914619143201069e-02
-2.987275500858217921e-03
2.070879636849652303e-03
-2.871994304687880070e-02
9.835501104555034735e-03
-2.297718457026573513e-02
-1.906235273952464754e-02
-3.173683586479447705e-02
-4.351634559892996607e-02
-1.223397510655610185e-02
-7.700678856471847300e-02
-2.084255494289122268e-02
-3.971198822283167340e-02
-2.836535379999458040e-02
-6.873428410199862448e-02
-2.600168610872687774e-02
1.735984223980612320e-02
-1.459883524947004907e-01
-7.426516758939283791e-05
-3.332626781133420785e-02
-7.494066983576609664e-03
-3.201221609635828986e-03
7.549059982705749738e-02
1.490281605663807719e-03
2.652352256856057092e-02
1.279473139384608438e-02
-7.369647013234569694e-03
-4.168642920648573530e-02
-2.029202850379659140e-02
2.396416010949361380e-02
-6.376652302319521862e-03
1.255771703368794602e-02
1.236823550451130599e-02
-6.845056344172136507e-03
-5.672459000019890694e-03
-5.529031839851252135e-03
1.164377093631395639e-02
-4.702694209945618500e-03
-2.364213228749960718e-02
2.056476237625618972e-02
1.738402334131807295e-02
3.563123885703811146e-03
-2.609733096650604378e-02
-2.755800878003850443e-02
-5.355094851313764448e-02
-5.028356338452149438e-03
1.223600154997673585e-03
-1.800223359628558631e-02
-3.021006435426458817e-02
-7.977342888827352110e-03
-1.408768733624985413e-02
-8.407336852242987268e-02
-5.512596863653067975e-02
-7.842292515848571510e-02
-7.885578378435771293e-04
9.209475617627322502e-03
1.000425361390488814e-02
-6.846359442573865355e-03
2.949560764187039111e-04
-1.015979920652210558e-02
-4.528549791989130990e-02
1.844802843248045813e-03
-5.571594889378642113e-02
-7.234254053341489937e-03
1.071782211385478856e-04
9.984249362091895258e-03
-1.025852480299740618e-02
-9.672683907779413767e-03
-9.507716647041457997e-03
-1.516716299435577099e-02
-2.208565259368959477e-03
9.976030652661282971e-03
1.145821427457324043e-02
1.857869825635600353e-02
-9.602022052362348820e-03
-2.460594797459413410e-02
-2.959805347197617953e-02
5.577374375725311501e-03
7.408281067753189411e-03
1.510159138569619301e-02
-1.035749382269914379e-02
-3.269708480620037161e-02
-4.336676406891853963e-02
-1.062682815326325587e-02
-8.891048924667861730e-03
1.807180041516167485e-02
-2.749790577755330950e-02
-6.120477518941185198e-03
7.895329336675383294e-03
9.162681125198824175e-03
-7.252430093895348776e-03
-5.187425646782790195e-02
3.086755596411053411e-03
-1.199296848220843953e-02
-4.747351950928806880e-02
-6.217552325757741416e-02
1.163063025051045644e-04
5.519726144769727255e-02
8.968271215770371937e-03
7.374322463419052259e-03
-3.467244179952732458e-02
-2.352479691901779302e-02
-1.494478027408232754e-02
-4.764289721133222605e-02
8.557260871740466832e-03
-1.525190110215605965e-02
8.618804268941000421e-03
-1.615372790079624282e-02
1.093604764536070320e-02
1.048694802708291171e-02
1.899550622833994645e-02
-2.114627013046351672e-02
-3.205307051495353415e-02
-3.746767804727052509e-02
2.562026743741756350e-03
1.620058557230895716e-03
-5.433358177564582073e-03
-4.828322410981840049e-03
-1.445756227101842838e-02
-3.817326736267270468e-03
5.314022261426232935e-03
-4.268968229618409944e-03
-8.139772293773352846e-03
-1.323343240927802797e-02
-1.362418316082946411e-02
-2.400501291916479554e-02
-9.516426126173701400e-03
1.132767140822897416e-02
-2.155796573154809478e-02
-1.463614127119313574e-02
-4.532936711297949790e-03
7.626683439891624415e-03
-4.155752812540558679e-03
8.071128091993971798e-03
-4.175985122800980436e-03
-3.885675018037773858e-03
-4.281000983668722080e-03
-4.404091481863250425e-03
-4.556843686817780258e-03
-3.851636605015363625e-03
-4.903496406041357898e-03
-4.451445082049350008e-03
-3.840343891026844290e-03
-3.839183647699103905e-03
-4.522812437002064929e-03
-5.205308923220179629e-03
2.450908459109496854e-03
-4.265141454786241723e-03
-3.957276763939599103e-03
-4.406595172846966037e-03
-4.031141415295654874e-03
-7.818444364193759266e-03
-4.379152522381434855e-03
-4.118055236829057907e-03
-3.811883838864006755e-03
-4.895782856143072667e-03
-3.349912021568467527e-03
-4.466933966574876749e-03
1.095050375787946784e-02
-4.348354012903695928e-03
-4.022253928245864661e-03
-1.126396412921229322e-02
-1.039795773955379254e-02
-1.063893253385246249e-02
5.328640858536816231e-03
9.632690059928915305e-03
8.558666516463225848e-03
1.350088933754260874e-02
-8.875901499493210958e-03
-8.492614776579201011e-03
-2.591920174240699287e-02
-3.524587209542380528e-02
8.918561427739994663e-03
5.755812052458604208e-03
-7.371628493219164156e-03
-4.615867617092903746e-03
-1.322550253346022227e-02
9.496828191439187980e-03
-1.285833616533003758e-02
-9.265140902720873581e-03
-5.181189917595938575e-03
-4.058160773924173598e-02
-2.912289616696247044e-02
-2.843675385710955211e-02
-1.590784527013314881e-02
1.583345677093817017e-02
7.908524347959555376e-03
-8.704823917801633726e-03
-1.418573356776132478e-02
9.356561779724586331e-03
-1.204754778335543307e-03
-1.130071475281988445e-02
-1.076236670098319748e-02
-1.397223729892330471e-02
-1.272888324013306260e-02
-8.801125038857956703e-03
3.078666852525566849e-02
-9.538599494364342901e-03
9.981343514379934639e-03
-9.131719991299979550e-03
-7.575188314279473166e-03
5.837852743576211166e-03
5.196356435078795105e-03
-4.100085854725070943e-03
3.583310199071908404e-03
-4.111584443274640677e-03
-4.589335529716847585e-03
-4.808098786842736165e-03
-3.907223050935298980e-03
1.547247501894268712e-02
-3.996923850714349975e-03
-4.135209856629322098e-03
3.148701625591419917e-02
-4.148486672824723727e-03
-4.339985660845066366e-03
2.539305225934062465e-02
7.517455510014724174e-03
-1.050309555524581856e-02
1.536175976617979062e-02
6.231813663292298799e-03
-3.845810267328768784e-03
-4.431867461184662432e-03
-4.488481272582773955e-03
1.655506892211837736e-02
1.575524268166975106e-02
-2.707392227424849224e-02
8.474343397252209059e-03
-1.169531405061267557e-02
-8.438072609288199341e-03
-2.914715539153491398e-03
-7.658741860657048393e-03
-7.542525158980858437e-03
-1.303577293465289950e-02
-1.284844621235838556e-02
-1.081262440977743752e-02
2.154125956086128460e-03
-6.731663068805493998e-03
2.138296955380762643e-02
-7.169040098334823578e-03
-7.398752444502946363e-03
-7.309393413608807760e-03
-7.124212192310631388e-03
-6.781602477212923114e-03
-6.756401303299982772e-03
-9.909541041189710506e-03
-1.689914275645966121e-02
-1.229904077277011593e-02
6.869375345050519020e-03
-1.055962652922395363e-02
-1.068396487986461585e-02
-9.291007291384045796e-03
-9.618551866562496597e-03
-1.018331135786081608e-02
-1.040217044043295971e-02
-7.691846199721283361e-03
-9.386651659547322335e-03
