3.481660866077838645e-01
-2.804622906922935588e-01
-3.561391130880786071e-01
-3.038720437766859184e-02
-1.455103175503759394e-01
7.209839648409907542e-02
2.902041113855539090e-01
2.680891271634713302e-01
2.268228468041672552e-01
1.912877444109458425e-01
3.173885024033401558e-01
6.163075757915383868e-01
-7.525155577648295901e-02
4.077597810182589932e-02
1.339029743556747198e-01
-2.362239289955355148e-01
-3.199324237732852350e-01
1.726466830454411738e-01
-1.406950979251065659e-01
-7.857854027435833277e-01
4.961141213619524315e-01
2.187870199856664366e-01
-1.714788278409703215e-01
-5.541240969911060549e-02
-2.713860589208077490e-01
-9.044281210365387458e-02
3.479547574242200514e-01
-7.555224965982169083e-01
3.378000599899886325e-01
-2.002002676026216552e-02
-1.729940152505884676e-01
-1.140604612569691978e-01
-5.939322918545852925e-01
-4.900291850725832510e-02
-5.048461180742178644e-01
-5.806220426109037769e-01
5.612775502739790479e-02
-5.585652677061028193e-01
-1.309791147565175229e-01
2.014899682615931831e-01
2.495121854100983139e-01
9.732838278740317539e-02
4.933398929673386557e-01
-1.996956179070204229e-01
5.944853348163134932e-01
2.157685133159887528e-04
-6.783859454735312322e-02
-4.291387527047380579e-01
-2.678521986971585389e-01
1.491217223169423456e-01
4.078448411974400223e-01
4.126439127384028405e-01
4.740350856174832539e-02
3.489922060649691682e-01
4.790146879825756682e-02
-4.149296607173833147e-03
-3.930807960068817830e-01
-5.859256942168066251e-01
6.816900936001187850e-01
9.947886256550309003e-02
-1.459474078182580736e-01
-2.438523438348568217e-01
-2.023074283119161709e-01
3.130665255742364761e-01
1.438863784290716208e-01
8.243322437339603570e-02
-2.032533449506945811e-01
-2.021338811382817902e-01
6.190087822088861935e-02
-2.807223092223734562e-01
-8.270089309820882750e-01
4.341944691201624074e-01
-6.615238276428813124e-01
-1.540823239170575620e-01
1.334305735856504971e-01
4.300874482397024634e-01
-3.619629135535850084e-01
3.062484055182537745e-01
3.249785393428491487e-01
2.729033822337958645e-02
4.783246782178465772e-01
-3.182215928495050195e-01
2.092570993674222266e-02
-1.428328264803939429e-01
-5.996129716850359670e-03
-3.134352018973252663e-01
1.355581241659652436e-01
4.176284735159773720e-01
1.219710458448039214e-01
6.827033389808890851e-01
2.469494174996874486e-02
4.802751714132525995e-01
-3.235968094289372321e-02
-2.053788399709647050e-01
-8.973133665712916818e-01
-3.837257115914637362e-01
-6.256712713669781989e-02
-3.925597439640037267e-01
-2.453438771842333110e-01
-8.370461604404452194e-01
-8.821327151559273105e-02
7.146433535029261819e-01
2.970710653278226671e-02
9.624344362403421116e-02
-3.609683826260611794e-01
-9.183854210274590146e-01
-1.037589942561058590e-02
-8.303092101524903734e-01
-3.411633206020772136e-01
2.258861579201618952e-01
-1.573205478071119934e-01
1.284044013307405335e-02
5.614527234186540428e-01
-1.890498274956063651e-01
2.446575095112617781e-01
-5.259966421277637583e-01
1.664561230361402688e-01
3.055514244874841800e-01
2.504196024087199102e-01
4.453918280291290221e-01
3.314035067769299236e-01
3.819899400360583508e-01
1.076861007997974989e-01
-8.338018471361207107e-01
-3.280987444857907942e-01
-8.067803624487841774e-02
-4.740282560791624911e-01
8.562430533247560038e-02
2.225307162507089154e-01
-7.741242965378036800e-01
-5.708922208715912217e-02
-3.312991900883131002e-01
-3.984873804477545578e-01
-2.104604933172245229e-02
1.053055924353944461e-01
1.346770947735029811e-01
2.107138421005645690e-01
5.631049587064597406e-02
-3.104795870723617845e-01
2.631729001572719606e-01
7.226996337112039093e-02
-7.555623024499675822e-01
-1.175375459061707845e-01
1.266069039301543353e-01
-1.356091804958523273e-01
-2.435165811389831958e-01
1.330337199791322977e-01
-1.206087457750787233e-02
2.965969042240679809e-01
3.203827401843495348e-01
-4.276220440135202194e-01
4.153687224424230107e-01
6.640281782906669594e-01
3.190176724668062347e-01
4.833067359457716289e-02
4.762879774678821510e-01
3.705248829002951716e-01
5.990731985207502497e-01
1.603153634350218404e-02
3.027272372981134607e-01
2.803937681053841890e-01
6.149519877611822061e-01
2.948573902782423151e-01
3.456833664443760279e-01
3.634247242267348854e-01
2.846096837272226177e-01
4.182892865484725275e-01
-2.654149816780697058e-01
4.809493802810685947e-01
2.525269212344410930e-01
3.674811225529163172e-01
1.431644899947200067e-01
5.670985498577172379e-01
5.367586606231111723e-01
5.003794548252639141e-01
4.233265593948472016e-01
3.126912714486347333e-01
3.666859096249974748e-01
2.971867267823192771e-01
4.039876008920828543e-01
3.473117601360959927e-01
4.563748239320518096e-01
5.589810081531035868e-01
2.186302667525797938e-01
-3.403979276174407542e-01
2.035232392893757403e-01
3.175252356752697458e-01
2.207087985580157841e-01
2.438749018614823072e-01
-1.424431004534731926e-01
2.956416600475502143e-01
3.202170597978707400e-01
2.599468780602112172e-01
3.304826877073213098e-01
4.253648669039709063e-01
-1.854307882078857772e-01
2.543324619711327395e-01
-1.658768863025943674e-01
5.688799499290251444e-02
3.044994535595272334e-01
-3.804426484546992726e-01
-1.115203527480315843e-01
-2.181392734866197669e-01
-4.425402666457181611e-01
7.808290529999119267e-02
7.380819651928179070e-02
6.415090446053525186e-01
1.097615416426417356e-01
-5.542702488334307898e-01
-2.602300381610895275e-01
-2.303604359540895319e-01
1.263162245862612665e-01
-4.832397181207177539e-01
-1.481407906064002300e-01
-6.658056689513326409e-01
-4.406962564075576627e-01
-2.114577814638313735e-01
1.972711919592279040e-01
-5.522554232136670516e-01
-1.950398944028606807e-01
1.127090904248808784e-01
2.251714906807720518e-01
-9.024362966524718255e-02
-5.200504081037852222e-01
1.699327621302388625e-01
2.707151319267828149e-01
-8.166208425230589985e-01
-5.609172185620342477e-01
-4.409826744629084527e-01
4.118526614058453106e-01
2.211949223849370427e-01
-2.924267148317307163e-01
-8.997367813718369634e-04
5.332831523830354747e-01
-5.293233536621105850e-01
-5.233561427890580653e-01
-7.520187444195201021e-01
-1.032792040358098129e-01
2.058350144968721374e-01
2.657907739519921875e-01
-5.579628797549723851e-01
-5.721671205784021330e-01
-7.856442861280378276e-01
2.049887035300165458e-02
-6.903335483083063995e-01
1.550164622010097859e-01
-4.707689473642364120e-01
2.375291705413271059e-01
2.499813904084994542e-01
1.710305426463632206e-01
-2.102261107210033342e-01
5.511055233905965967e-01
-1.569959162827605781e-01
-1.597748604679475048e-01
3.975718249889735323e-01
7.400909811967046337e-02
1.335590203593021719e-01
-2.300752226642138187e-01
-3.022767476729994011e-03
-5.084995851352880347e-01
-3.355565157051701441e-01
-1.996524873011700993e-02
8.014173330534883621e-02
-2.633922789565593670e-01
3.990575025160694733e-01
1.569299616202885217e-01
-4.485261145966575047e-02
-8.293688698083623301e-02
-2.304464539612278429e-01
-2.233132477323749310e-01
-1.855447943190514926e-01
8.098314795528792354e-02
2.562065395963928349e-01
-3.618637106467965103e-01
-2.912920141727738388e-01
5.630519182769060799e-02
1.918456647001476612e-01
-3.609076309299627527e-01
-6.490385694322542420e-02
-3.985229135832722008e-02
4.209495154128351513e-01
1.313311193513349850e-01
-5.835816099665851187e-02
4.877947699862547615e-02
2.172836511358194334e-01
6.696987563989194314e-02
-1.274802821544085973e-01
-3.530767745938107049e-01
7.487376124172989700e-02
8.752917636518696420e-02
-3.793553296810470710e-01
4.928785374683877785e-01
4.085473939942814159e-01
5.937528514474249564e-01
4.935270847588048015e-01
6.692330681608947840e-01
-3.527791832607359845e-01
-3.362010194375402161e-01
-4.429358320084862410e-01
-5.779157311916002238e-01
-5.645197649880424606e-01
-4.451983065128862771e-01
-2.780531687512655670e-01
-5.948192345669821995e-02
-1.367059978320104285e-01
-5.010588028514804115e-01
-6.025996383177919524e-01
-4.219961615292679852e-02
-1.315172563339669920e-01
1.516485425558704997e-02
-1.595267634397953826e-01
-7.975920439149321028e-01
-7.102590108889346165e-01
-4.535469964409265531e-01
-5.332645651086950211e-01
4.126410937008827273e-02
-3.830375576016950001e-01
-3.957107371922885530e-01
2.349674896285803838e-01
4.728027513957298866e-02
-8.995039766476951165e-03
1.541128118889644738e-01
1.956031297168263090e-03
-5.506653181089636862e-01
1.950117667927133563e-02
-7.829913633014887742e-01
-4.151284769094441829e-02
-5.078913324263240048e-01
-2.674895818221241783e-01
5.907655258740754922e-01
-6.328064912893465177e-01
-3.668597651326698239e-01
-1.004296270741337871e+00
-6.539164808374515747e-01
-3.598578819267905793e-01
-3.553597191125396071e-01
4.489007675814599141e-02
-1.003393742535429567e+00
-5.981176667185832407e-01
-7.264384694661610853e-01
-3.616820402959692315e-01
2.288667782047949517e-01
-7.307061357006060520e-01
-7.603720612932620693e-01
-7.845555933435413021e-01
1.777150900985998427e-01
-3.343756058742752835e-01
-1.271461484369145190e-01
-2.007830023536218422e-01
-2.175634739325345637e-02
-9.825386352462912587e-01
-6.947554154150024086e-01
-3.038175560604660513e-02
-6.291487774394195487e-01
-2.347543504524204905e-01
-8.324238809668583761e-01
-3.924933516766559438e-01
-6.121961552605497126e-01
-7.407612097264934525e-02
-7.189441364642999710e-02
-8.469057038162984830e-01
-5.890541132087481202e-01
-8.080392610005756593e-01
-2.260201357253837640e-01
-6.042923479360410299e-01
-1.500730767722923964e-01
-4.679707111667133490e-02
1.665425606445051360e-02
-2.203601995121276524e-01
-8.035203703062429037e-01
-8.452310664046642774e-01
6.409616860428715146e-01
-3.062321563188162288e-01
-3.432851534189121367e-01
-4.749289756194574053e-01
-8.019797046778706084e-01
-6.260838743057096645e-01
1.189532973769978630e-01
-6.778579397915835969e-01
-1.018267467573233942e-01
-4.224366672721187599e-01
-1.358582155729643193e-01
1.205490029246936989e-01
5.760312366242700821e-02
7.890048797410247061e-02
-6.901861816925810578e-01
2.214490679569131037e-01
3.295389913776645141e-01
-1.398293966218174811e-01
6.218001798057321006e-01
2.131165376796071986e-01
5.268257267550418010e-01
3.334075839713394052e-01
-4.770518840132487517e-03
1.578875435189586451e-01
6.812442886614315796e-02
2.487773861484569304e-01
1.903553028057489993e-01
-8.493880032542774905e-02
-5.755557510374185171e-01
2.761663735942179176e-01
-3.803749890624044672e-01
4.563143544631720894e-01
1.322564872897783461e-01
-1.666570156987248197e-01
-4.452227654632033849e-01
-5.618985326513741274e-01
-4.162755475726580279e-02
-7.851185553895992930e-01
-3.111149882471166972e-01
-8.657636753749954339e-01
-7.396302926949944734e-01
-3.471336209646611048e-01
5.513621658121969915e-01
-3.887968591811716279e-01
-2.020371591923630916e-02
1.508308082087894686e-01
3.080276538166429878e-01
3.020271402433851726e-01
-7.946315268494370809e-02
-6.806157199511220224e-02
3.600106943584356345e-01
-9.977928967275276340e-02
8.464219893099228509e-02
-6.415947496945365036e-02
9.259370004602002213e-02
-4.774959778537274935e-01
-3.899827536425989338e-01
4.299892651640495611e-01
7.310856153640206412e-02
-4.762327946102812848e-01
-2.404864813812075397e-01
4.449390029133486468e-01
6.856146651491518140e-01
5.943263589323086737e-01
3.574736093771312961e-01
2.462687890390692358e-01
6.234522037666201388e-01
4.430369889911681125e-01
2.403343284924404008e-02
2.604355325700105084e-01
3.141681944109033231e-01
2.225397160305072064e-01
4.709365592856585292e-01
4.881763921238154169e-01
1.412565294257074888e-01
9.245488011789264327e-02
3.988387126323025833e-01
4.524697318067482099e-01
-7.629535472288553888e-02
4.096506327768958955e-01
1.883271871409631648e-01
4.092214704540168002e-01
2.779928773545167209e-01
3.900487800130189586e-01
-1.266078076452155088e-01
2.634922031491214733e-01
-1.122445578087899118e-02
6.454687235805298129e-02
2.365870244916413456e-01
2.369805594719230080e-01
2.370473473579668700e-01
-2.797646389650423199e-02
2.231012134537074532e-01
1.396025030085717988e-01
5.321803470763366573e-01
8.836676130231359283e-02
5.808203554802416901e-01
1.592698475453269980e-01
5.816658327625491287e-01
4.265109707252504045e-01
6.713511564312886482e-02
2.295989221611481335e-01
6.353777507946011260e-01
4.933734503795585424e-01
6.314483952164057223e-02
-3.307496007369603030e-01
2.863517964017754380e-01
1.898225021363425802e-01
2.055342195806318661e-01
2.403262929811539605e-01
2.982155583803339227e-01
4.668601513231582789e-01
2.800727545325440992e-01
2.257454757405717993e-01
1.729822444544210913e-01
-5.811964130343529739e-02
-2.547993994801321938e-01
4.918803328969620359e-02
-1.600986387333149241e-01
-6.144268685296891963e-01
-8.992320336424604044e-01
-6.485263767749297470e-01
-8.101728247268183969e-01
-2.049108090114055147e-01
-2.895286516181667658e-01
-3.686157927149841251e-01
-2.703056970402016312e-01
1.085867532339237634e-01
-2.861110075626333571e-01
-4.979832487044227873e-01
-6.600950389750012137e-01
-4.547985127782319670e-01
-5.130649179142352523e-01
-8.413989918989747685e-02
-3.715564922950870264e-01
-7.450664774021710235e-01
-4.445683740977340870e-01
-2.034240759466466320e-01
-8.743952571502762172e-01
-8.106937106636310508e-01
-7.071332503572160810e-01
1.631474369045822492e-02
-8.231922989675927171e-01
7.895120501737223906e-02
-4.711584210882549528e-01
-4.044641464405188125e-01
-7.427105169652230554e-01
-6.590015672780011879e-01
-2.051092696468405918e-01
-6.485121899329291395e-01
-4.154465817548466666e-01
-8.045958238990861267e-01
-3.785161782954101772e-01
-2.665078710843271637e-01
-1.921193696203158385e-01
-6.535711320700415827e-02
-2.196749137529428464e-01
9.652450464733585735e-04
-3.757947138097456619e-01
-4.708069661508968995e-01
2.354470053396721108e-01
-5.614819422847391883e-02
2.792021451630598977e-02
-5.887804948003576566e-01
-9.953909458784510056e-02
-3.937623874155993242e-01
7.186698054762723220e-02
6.783779455076621723e-01
2.871824864707355207e-01
-3.973514757373646789e-01
4.359107840177272042e-01
2.673860383449526146e-01
5.338942498503504996e-01
4.560804019264289716e-04
1.200198695368432655e-01
6.117032406260738409e-01
3.592067714033935766e-01
6.471736893496234932e-01
1.305008856109683701e-02
4.673631645015031144e-01
-9.478390350844370649e-02
-4.366401396627781484e-01
-5.397296380187052156e-01
-3.538608304709692787e-01
-8.598197124345816622e-01
-3.932900201284537239e-02
-3.617638689360423987e-01
-2.721201340611330566e-01
5.755847266710650140e-02
-1.153233999438703222e-01
2.294228876240465287e-01
1.468543611506742223e-02
4.099316982899222500e-02
2.697743668517482152e-01
2.307972060163572814e-01
-5.531880533639881303e-01
-2.489873945448705106e-01
-3.894741329298695987e-01
4.460745878281294763e-01
2.735925803580803173e-01
-4.198162340421706662e-01
2.998842769018278398e-01
-6.747293670173221125e-02
2.192964139849024226e-03
1.281354348535938270e-01
1.612390988991435903e-01
1.238516160264885452e-01
2.815387955175022161e-01
-3.757444398544509956e-01
2.576391241932120095e-03
4.283852883924317845e-01
1.465866485005948294e-01
-1.265881594018483103e-01
2.531631999806011057e-01
2.404454842201658726e-01
2.712268836287449747e-01
6.342066605969925996e-01
-1.231791708042796890e-01
3.673682065535806562e-01
5.381762363201302024e-02
3.461887281338935640e-01
-2.674354109909390931e-01
1.356925835354543253e-01
-2.661330842391646523e-01
-4.401198559044579017e-01
-3.622285164960575288e-01
-7.997735013530432591e-02
-5.355848157591843739e-01
-8.625072719420102951e-02
-5.026114471865800182e-01
2.023883997969634085e-01
-3.399580088413145518e-01
-7.253666638554664425e-01
-3.757976189723656324e-01
-4.626189265820090379e-01
-8.231670234781103268e-01
-3.665209930820643169e-01
-7.728888446880011198e-01
1.348262165212973651e-01
-3.465926841069298381e-01
1.439030197905043565e-02
-9.658300328187547912e-01
-8.694890017712347818e-01
-4.861504045515518402e-01
5.389554946774053473e-02
-4.522749690329309902e-02
-3.474360213129803338e-02
2.786522003681296544e-01
-4.223090745116551692e-01
-8.220747722200440200e-02
-2.776889551206826456e-02
-3.376345627469719002e-01
-6.912896145654199298e-01
3.301346147715599200e-01
9.397409843958402786e-02
-1.591946407968337085e-01
1.434788994219239888e-01
3.168504689023362436e-02
-2.917462871846220329e-01
-6.281859616163899818e-02
-2.323381992217710135e-01
-2.449464930889811431e-01
-6.579096500565991823e-01
-6.718902790218057586e-01
-4.521524376516634636e-01
-3.045569254902333323e-01
-5.730915806136765989e-01
-4.465201152090396142e-01
-7.542203993011639684e-02
-1.459851134515290430e-02
-5.996754008359304056e-01
-1.516295834062750536e-01
2.996882538100508753e-01
-5.786195773064232162e-01
2.360025097471322997e-02
-7.326278344859014080e-01
1.469147208129137905e-01
1.169443839965520898e-01
-5.557110984776726381e-01
-4.161172453426523754e-01
-1.233348033458666476e-01
-1.268258413437813210e-02
1.316749988291741058e-01
-3.587630535598765325e-02
-8.296590967903203495e-01
-3.625030413423956932e-01
1.616156971729254821e-01
-1.824490956937065422e-01
-2.881592919295586364e-01
-4.562243419341043271e-01
1.688937179546489142e-01
-1.450488110739325820e-01
-1.714571857441143238e-02
1.114068819076635963e-01
-2.231127277050631852e-01
-3.258114578860344390e-01
-6.291576661723465858e-01
-1.110754664765330357e+00
-8.231590290881308780e-01
-1.283352281187641608e-01
-1.871877343460477960e-01
-2.532717602291580938e-01
-3.730985107364037656e-01
-3.676719129587386892e-01
-5.762412829277067106e-01
-7.913704955483449321e-01
-1.111564155612735222e-01
-8.387920787098651632e-01
-1.001226741755904259e-01
-3.573313811403465712e-01
-3.568317272143266550e-01
1.037868175172833723e-01
-6.326194004738638910e-01
-1.967172034597113039e-01
-2.598091659365323602e-01
-6.736304340634247101e-01
-5.024007396361331867e-01
1.040864975237638101e-01
-3.568815757618516438e-01
8.517172719780528867e-02
-5.135486517911123927e-02
-9.845795028034797225e-01
-4.302119275026649037e-01
-4.221224995153894932e-01
-3.042400961271052307e-01
-6.128375682217086506e-01
9.682598467849319601e-02
1.250171314278538670e-01
-4.150418067241549158e-01
-2.875634130629911578e-01
-5.816345193719203444e-01
2.331503245683761716e-01
-4.307364791541734017e-01
-8.944710788209573327e-01
-6.713842299039866068e-01
-7.583371730165373581e-01
-5.759369806652778756e-01
-5.754854747547549776e-01
-6.457363506147254517e-01
-7.321357763693566723e-01
-3.811062574399697311e-01
-7.747844445985898609e-01
-7.962784456809695044e-01
-6.829146754106256711e-01
-7.128799667561728226e-01
-7.946499731982510362e-01
-1.418738448301612165e-01
-8.035703232051215616e-01
1.914169144656308885e-01
2.447930173253555219e-01
-3.275191145040182161e-01
-7.734390917597051551e-01
-2.266325106958507196e-01
-5.675688314522673306e-01
4.054242523628567157e-02
-1.400505275183441534e-01
-3.637300425679446114e-01
2.093406944446551399e-01
-7.237109142254511962e-01
1.308426453058374739e-01
-2.289117984769244163e-01
4.470828269654424370e-01
-3.525446567677710807e-01
3.826594050836212291e-01
-3.938624916170940793e-01
-7.266122006236553910e-01
-8.085006134011595291e-01
-3.883339417089982093e-01
-6.720233005819515881e-01
-1.466425246529388937e-01
-3.888606303622582083e-01
-7.355140838873782672e-01
-8.721124178135774008e-01
-4.736572135165808550e-01
-4.805450189301661013e-01
-5.872024339094227274e-01
-6.600361195763798650e-01
3.033662735988185838e-02
-5.179205068556790026e-02
-1.303335404627775362e-01
-7.523295178985385245e-01
-6.664897745656628292e-01
-3.389374211683344740e-01
4.879054093344584869e-02
-1.833166425419921197e-01
5.379389443579585262e-01
2.006419297833712811e-01
-5.536366679004045555e-01
-3.446256455897902526e-01
-1.431656544190406180e-02
3.685073163159860443e-01
1.764650087819664703e-01
2.230380581274333252e-01
-9.788939967407864207e-02
-2.217806190930127486e-01
-5.746547297889622596e-01
-5.341070056813878031e-01
-6.848651907419158746e-01
-7.904800228239818871e-01
-9.107757292969698160e-01
-9.774375128793038048e-01
-7.104952709912719655e-01
-7.366545745424830649e-01
4.144931800175752912e-01
-1.678076557156725490e-02
-9.291610560113225947e-01
3.467028090678166419e-01
-1.049533204829639077e+00
-3.386313469030972079e-01
2.181141801151263160e-01
8.867341517199353595e-02
-2.920780524826198654e-01
3.645228703426553474e-01
-3.263146371321967720e-01
-8.440210108954037116e-01
-3.605311983158659278e-02
-7.881689094733340673e-01
-9.169682138740928856e-01
-5.150234223634786446e-01
-2.064514556907594833e-01
-2.288501563359125190e-01
3.156980645873614932e-01
6.280802358100537330e-02
-2.079483261407200911e-01
5.122415262683338577e-02
4.292159091041813923e-01
6.351638128795842331e-01
-7.137188722224695192e-02
3.111288776668018063e-01
2.075959065637532353e-01
3.897793655163439563e-02
-5.246598982856582882e-01
-6.419712930519263505e-01
-6.015262578792188730e-01
-7.373889446256782776e-01
-6.978377094488258381e-01
-2.638630771914414197e-01
-1.063191278626181430e-01
-7.130733790250554094e-01
-6.915561748612057968e-01
-7.132496832986197077e-01
-7.903904460390446252e-01
-4.996616847673587269e-01
-4.869566644704643177e-01
-6.645867425151401608e-01
1.935474167695339781e-02
-1.080034963317432484e-01
1.102218768656257619e-01
-4.942881770878620462e-01
4.579404242895359634e-01
-2.365188788095253514e-01
-2.225353464818079219e-01
-2.637862194146057271e-01
-2.911383081726623967e-01
2.120919577321548066e-01
-8.073102549615761570e-01
-3.597471545177551300e-01
-2.527373733982014592e-01
-6.670274959909825441e-01
-6.020329940342843411e-01
6.782088073160932318e-01
3.938707159618474729e-01
1.131540810925643903e-01
-1.994060152703308886e-01
-7.235379126373948644e-01
-4.292982522550387592e-01
-4.155005841526489552e-01
-4.611567897170906205e-01
-1.132087840852823657e+00
-3.585029530320287261e-01
-6.210705123794854066e-01
-1.020882470699667754e+00
4.651323397540073068e-01
-8.647329697687304861e-01
-4.100821502685316200e-01
-3.228937676292302217e-01
-1.441648036239251418e-01
-1.186708707711875421e-01
-4.967816627653671158e-01
-6.540149974680811162e-01
-3.564157200382047086e-01
-8.992107285715233989e-01
-2.516314821212149999e-01
-4.406441119173106769e-01
-6.372472822727943687e-01
-5.446275129234150469e-01
-1.052758372434380751e+00
-6.147088579009292175e-01
-4.947092832185588374e-01
-4.336529548536277590e-01
-4.074013143478191767e-01
1.591443827883687046e-01
-7.816617518160731692e-02
-7.030853064694555510e-01
1.545391671183203031e-01
-5.611259222042505428e-03
-4.214978568496622335e-01
-4.928063070309023352e-01
-7.246557015867834961e-01
3.023785522203061849e-01
-1.385776534064975252e-01
-8.157071455752997746e-01
-6.528737663795078916e-01
-4.364006303390099983e-01
-2.186049991342561283e-01
-6.495788713172597761e-01
-1.758169178081818995e-01
2.325239406220056260e-01
-3.972855643934968817e-01
-3.083301923506494568e-01
-5.499053497601175122e-01
-1.671445734029336216e-01
-3.455587215012173585e-01
-7.462450466564829465e-02
-7.848010571259964041e-02
1.193197584923409993e-01
2.692022325613145917e-01
-5.428857828487045900e-01
-5.259184145708948321e-01
-2.518410620689320867e-02
-3.590052793245110396e-01
-3.187919880078315255e-02
1.462189577717821487e-01
-5.662508311069215372e-01
3.651108831841780034e-01
3.840809929144788915e-01
3.908205444710463605e-01
-3.193031609789299674e-01
-3.550355013629019063e-01
-2.875573553627653323e-01
-3.316345131249107681e-01
-1.829420767876884790e-01
-4.524397462151720228e-01
2.498761960095818510e-02
-6.763531996767001564e-01
3.518927862312660193e-01
-4.791714885398427881e-02
-4.660968982026159613e-01
1.199938769046902942e-01
-6.279627491934429706e-01
-8.315035545768763026e-01
-3.580232080055660293e-01
-8.054866975041269361e-02
-2.341743585398734784e-01
-2.667462621511474397e-01
-8.117548499003276463e-01
2.330143671237173697e-01
-7.085278940821163607e-01
-5.985824138100207525e-01
-9.260174575698781885e-02
-4.923118845311619252e-01
-9.100828653455771411e-01
-3.452683569452110746e-01
-8.556412089922101061e-02
-2.210491154466762975e-01
-6.209201242670255860e-01
