2.766846856857651388e-02
4.726577058153163396e-02
-2.217995841355569486e-01
9.919251910963855501e-02
-3.677926698134832417e-01
-3.690722623773401434e-03
1.883320822504266634e-01
6.751894214293936713e-02
1.189871014073202171e-01
4.775987077438540451e-01
-1.737376586316418114e-01
2.275100258336126557e-01
-2.721583969186151530e-01
1.618172419204534918e-01
-2.155709769084991623e-01
3.176301245536304330e-01
-7.573493735444074282e-02
-1.040235467357252148e-02
-1.562282906228263865e-02
-1.335809060546212512e-01
-4.190491230694841085e-01
2.314635887966180749e-02
-3.710349078304345238e-02
1.770402532805346596e-01
2.354935629516315132e-01
-4.414406154144638883e-01
-9.159040826889630615e-02
4.286989541888020644e-02
5.998464157043112421e-02
7.739369354397994394e-02
7.220551767333116544e-02
-8.630433263718859105e-02
6.180116814098766259e-02
9.718715979188684295e-02
-7.792397431025459287e-02
4.572590800601687711e-02
3.558221509868491478e-02
9.606017722208520793e-02
1.830826516179389490e-02
-1.418433959605903960e-01
2.484226191847020357e-02
7.925582710057495206e-02
1.339685858073252078e-01
8.586562134224649812e-02
1.448243471895013443e-02
8.707897958094809598e-02
2.121633823807232352e-02
4.353034144105034746e-03
-5.102739073220214916e-01
3.467580818505790544e-03
-6.160630341636710167e-02
2.365952381736892152e-01
5.351238184146746985e-02
8.751981869812426595e-02
-4.798956084278742373e-02
7.742039474793864506e-02
-8.423660165638242880e-02
1.306357699347912293e-01
2.726689026875011024e-01
4.180304750382501378e-01
-7.202649465661228878e-02
-1.699005310956302750e-01
-2.785564612146154140e-01
-6.182555395999578783e-03
1.401566278138351440e-01
-2.998404799269072454e-02
6.022300743608840351e-02
-7.451337056398832370e-02
-1.889607480438693348e-03
-1.033676834718137844e-01
-1.424546232791752340e-02
1.985476962836926484e-01
1.014029948278420516e-02
-1.836946665191547395e-02
-2.294878863737088992e-02
-9.360701057386246193e-02
-1.208937156984430522e-01
1.640171529005521843e-03
7.552305038370550616e-02
-2.395512258116380341e-02
-1.014585514715739684e-01
-2.567324788871722663e-01
5.878515410598800228e-02
1.198262847081697224e-01
-1.358977726617417447e-01
-2.573811847180496395e-02
9.432175242677943994e-02
3.868816542566087813e-02
1.166788301954400087e-01
3.456392245396206486e-01
1.371852730683714161e-01
-2.678426525458766916e-01
2.245536456746516276e-03
5.854992666029467524e-02
-1.281907357374138245e-01
1.580653871018505019e-01
9.046799508213469732e-02
-5.458112830004906851e-02
1.476074205607840611e-02
-1.609992504469718311e-01
-2.593193495842553986e-01
-7.949058978367822270e-01
-2.921522116996293217e-02
-4.317482524543282962e-01
-3.801356197553577843e-02
4.897042739294756031e-02
-7.556142882366342906e-02
-5.333851890892397224e-02
-1.218400961421321621e-01
-3.494895436402262745e-01
-4.518671305799741578e-03
9.155750702133268193e-02
-6.613866075751697812e-03
-1.359113388224692798e-01
5.257716297766631269e-02
-4.390906473732403281e-01
1.036084672610144142e-01
3.157261199408699093e-01
2.815792971335819850e-01
1.385879728025189717e-02
-2.515961276381371500e-02
1.216681954644243946e-01
1.687086085643953182e-02
-7.033659582280193945e-02
-1.826593694535999235e-01
-2.499662706851703622e-02
1.167700938901251873e-01
3.097915541151132282e-03
-1.714405237107002322e-01
3.482942186483293789e-01
6.902644705131613656e-02
-4.954329778018155481e-03
-7.951906111644492514e-02
2.145083612874128590e-02
-5.253755161838648963e-02
1.554766077246227396e-01
1.850351987536224541e-01
2.202896987178833976e-01
6.138238459409634667e-02
-3.521578667763877735e-02
8.374732573913784561e-02
1.089449071874921612e-02
3.305422896638912644e-02
1.219142727778445706e-01
-1.018012443657588667e-01
2.409190992004713386e-02
9.620726290371010847e-02
1.099843001781086044e-01
-1.526568841950964872e-01
1.176761682834005923e-01
2.442477348903759060e-01
3.571303243874558442e-01
-1.185624595038337337e-01
5.089217470005848870e-02
-1.487501533819170496e-01
-2.521058297903810280e-02
3.088644847126207835e-02
1.079412577507160437e-01
-2.955515095192159415e-03
1.817793335546836753e-01
-4.101155432182563843e-01
1.142311909395959599e-02
-8.665236114978799864e-02
2.465084861566134988e-01
4.135009257221362866e-02
8.950173991436549681e-03
-3.949207706162009661e-03
-2.985334143361530190e-03
1.359021865746491003e-02
-1.520880654176621355e-02
-2.761739273602877714e-02
-1.361529790545841223e-01
2.315771840877471621e-01
1.299368061238611871e-01
-1.207946208677872398e-02
3.670941630976161385e-02
-1.482248705503456249e-03
1.372495596728977307e-01
-6.552605399033334388e-02
7.931751003757749052e-02
-9.346406754077964951e-01
-2.907455284768021078e-02
-1.527426066324417686e-01
-2.955747150117770533e-02
1.791106865142498561e-01
-3.178799526292633293e-02
1.278235108961220112e-01
3.080672842954416263e-02
1.681508690588277843e-01
-7.909568705486305640e-02
-3.380573250669374058e-02
1.580024706817821298e-02
-1.296879601387803393e-01
-5.552105439508322471e-01
-1.637158330183080268e-01
-1.148998788322144055e-02
-1.565084153679875967e-01
-3.331512750842450798e-01
-7.327649763134790051e-02
3.586321566246384873e-01
-4.470288362909774493e-01
-1.148570681964132395e-01
-6.828666867505153726e-02
-5.012780136946280024e-02
-9.300971203830030176e-02
-3.131924017791882786e-01
-4.256433027625876053e-01
4.904698031662049762e-02
-8.171320176509576372e-02
2.202282792554840496e-01
-1.377532454223248937e-01
2.448209732159036325e-02
3.267656828191858875e-01
9.708471930396936345e-02
-1.289724278237151973e-02
5.463111408959214071e-02
-1.645089234266058353e-01
-8.903211257850447702e-02
4.793489834001807282e-02
5.157387360105573221e-02
2.982488968700672954e-02
-3.173345262954264667e-01
-1.741286913347880605e-01
-3.072850432667776910e-01
1.322181283671020335e-01
3.338480747040819402e-02
4.509367457997277492e-03
-7.610649018455645232e-02
-1.056960447310851259e-01
8.029966914905029007e-02
1.720714635865582334e-02
7.239565850602398822e-02
2.555142942864379041e-01
-5.264498388795824102e-01
2.367498242454305346e-01
-1.606316019914042215e-01
1.485023959818204120e-01
-9.372494814056386847e-02
1.873022741122310764e-01
1.352319171176618109e-02
-3.653915889210860440e-02
9.882594651666580521e-02
-3.149926112162373254e-02
1.525604421473182593e-01
-1.508508802673995050e-02
-3.319766496385071486e-01
4.923016543377752019e-02
-1.045234894586983682e-01
2.586267367755937796e-01
1.847757230432202358e-01
2.187788176681510280e-02
1.084775354915845091e-01
1.101602696679313126e-01
-4.006411715484157754e-01
-2.793439301807174591e-01
3.181973052538596969e-01
1.219108097476609281e-01
2.634051770827857894e-02
8.616065504147100984e-02
6.614644483168641287e-02
1.170899448831584505e-01
-3.825238205186954343e-01
1.761064964625474738e-01
2.723485136338923973e-01
9.660285108255615635e-03
-4.640683408708386193e-02
1.708587295717251264e-01
-4.591240447674667657e-01
-3.032924052281534277e-01
4.092305277450706824e-01
-5.943918802870563900e-02
1.846514061577138599e-01
2.934511302323656451e-03
1.936085136107976445e-01
-4.162996399136693060e-01
-4.931320883473289812e-02
2.458847862769017803e-02
6.422356244679518211e-02
-1.391517880486448366e-01
-1.024276016774952336e-01
-4.249454948162022239e-02
9.760149561603616991e-05
2.007604854998924493e-01
-5.572008660283526982e-02
6.220784704693621547e-02
1.195345185825092832e-01
1.904952749444809579e-01
9.435776460278548494e-02
-9.769896311593574689e-02
-2.277530709504036466e-01
2.151415281197383567e-01
2.656813574293468427e-01
-5.161197033600384287e-01
-7.685446581419272394e-02
5.533646777903727942e-01
2.786519114084172744e-01
-2.065621283354358850e-01
1.303256298345822906e-01
-1.235855409444578390e-01
6.674846978934102781e-02
4.980384410439308435e-02
-1.338978123155350475e-01
-6.483972585186001392e-02
-4.989889107457391032e-02
-2.797986380037543741e-01
4.953400808164783176e-02
1.042912556470676315e-02
9.729165429631862760e-02
-2.034496041232716768e-02
2.939295290013228465e-02
1.400051337557101927e-01
3.020980709401648867e-01
-1.079735683047729905e-01
1.955833848020236965e-01
1.449774487796498257e-01
-8.864817951535937379e-02
3.184753160329427402e-02
1.217353788739391623e-01
-3.429846341177325564e-02
2.038866875132723799e-01
-5.977029087355667514e-02
1.128076800231594123e-01
-4.380336272037393258e-02
3.024157313924933921e-01
-1.868117911145009136e-01
-2.715542836531926185e-01
-1.728194952020732367e-01
-2.550211543482039378e-01
-1.239730209566797942e-01
4.552238666532568701e-01
-4.579289430869913635e-02
3.794109780528315823e-01
4.535943524723495823e-02
-5.517068762739390370e-02
2.188775421890522960e-02
-3.262883028356340365e-01
6.632675353947144192e-02
8.716810780475636733e-02
2.370034281556945288e-01
1.412263220306045897e-01
4.359810810376866380e-02
-1.678207083097453256e-01
2.584136054410843819e-01
-2.617798494325173850e-02
-3.201968416973826476e-02
-2.009451081343559264e-01
2.283914046510438292e-02
1.997994408165659486e-01
-8.087037354613371698e-02
1.450822610303537652e-01
1.863139497749273787e-01
-1.479077201569757236e-02
-2.378599337622499740e-03
-2.670011962271438485e-02
1.788412148342487518e-01
7.793370489202353958e-03
2.389180028515709153e-01
9.189950649668279792e-03
5.195248673837214726e-02
9.547138592406557989e-02
7.441027995630410119e-02
-1.108869815050501223e-03
-3.207056096679239965e-01
1.335223068396063431e-02
-8.141054481083631264e-03
1.424682911006823482e-01
2.606179112234022210e-01
-1.155831748491889105e-01
3.564507141100321103e-02
-1.604958176674263493e-02
1.111337212861117918e-01
3.252281944842037587e-01
6.664655137085859216e-02
-1.210463078674743620e-01
3.108386565279458100e-02
-1.397034036868187445e-02
2.982284299561632768e-02
-1.913168430165615996e-01
2.452800201914204226e-01
-3.272077147294336630e-01
1.065524455008458882e-01
-1.343563758846046674e-01
2.222571773385651761e-01
1.363714885313884739e-01
-2.564852672633681219e-01
-1.927444018739679632e-02
-1.923025837021258844e-01
1.836357860564725997e-01
6.555298544506260594e-03
6.023484716261885696e-02
2.755379357695934145e-02
2.199801555621055948e-01
-1.990445327495052041e-01
1.771561325188928671e-01
1.825998801171811042e-02
-2.312550704390560138e-02
7.563626432811350331e-02
-5.188087473904530456e-02
-7.138335848423912333e-01
1.887136751752122379e-02
-2.696967335246491237e-01
7.660781949049939865e-02
9.949700036349466703e-02
-3.983707451732206722e-02
-8.003430174836639877e-01
-1.448122844123297392e-01
-7.945319487754423649e-02
1.869580364838303518e-02
1.333306222307001875e-02
-1.212045523473762598e-01
8.834657300483744757e-03
1.173622289184013262e-01
2.347607939661453674e-02
5.572873410097706898e-02
9.323946581557907010e-02
1.796326514273304531e-01
-3.302170512323687745e-01
-8.517879393124931642e-02
9.984449735646740154e-02
5.251688697802928824e-02
3.797859810810767095e-02
-7.305176170321345253e-02
-6.689362842403558281e-04
-5.349471971210447568e-02
-4.235186220721947059e-01
8.790616717996607710e-02
1.929450122695199610e-01
2.160345099679242820e-01
-2.610205258342309653e-01
-1.815591629096377502e-02
-3.742004405611030343e-02
6.200324812508849898e-02
-7.291915538610027614e-02
3.894265885447739661e-02
-2.298692233604615609e-01
1.074135103414046444e-01
-3.545904314017499920e-02
1.661357775618306221e-01
-1.589482724070935505e-03
1.589117246699863206e-01
-6.856623626715919670e-03
-3.541329092334870587e-01
-1.510659029427454357e-02
2.773990397858098339e-02
-6.787733574078974597e-01
-2.091627179521322044e-01
-1.127939684190951142e-02
5.782627248654748087e-03
9.291719992431897446e-02
2.445126298655337094e-01
-1.638331155915253579e-01
-1.453999590916527085e-01
-1.721299883332733371e-01
-4.991515000890850984e-01
-1.505901561892824814e-01
-1.266963151270606991e-01
3.778620055982125914e-01
1.536531608166437080e-01
-7.126571274435505865e-02
-1.152502159820379402e-01
-9.161679497966902785e-02
9.529327784845971483e-02
-2.920291214825230797e-01
1.739804640954521753e-01
-1.979821451501075080e-01
-1.279951099065939346e-01
2.127127101101915219e-02
1.533045637241929326e-01
2.361930366291806749e-01
-4.965276324946726189e-02
-2.789302076131783270e-02
5.069849077216705968e-01
5.770687739209238998e-02
3.205322982541820576e-01
6.049591181409137708e-03
-3.972800889338731073e-02
2.740992260037090067e-01
-1.065288753821807127e-01
-3.964119522544836544e-02
6.163201657699309000e-02
1.208743600140492758e-01
-2.802498709504563576e-02
-3.010823639259770368e-01
3.065014114729167072e-01
-1.138612412609747021e-01
-3.066648177464566527e-01
4.045823041744234932e-02
-1.662552701891869822e-01
1.118986991726669683e-01
-2.400379472153435223e-01
2.853153627805845791e-02
-1.387775980793144182e-01
6.183182702472346526e-02
4.159665686398381079e-02
1.837627659214622067e-01
-3.775258587756105677e-01
-3.198615395425772334e-01
-3.612894772787955677e-01
5.933170087328005354e-02
-1.358660111099343204e-01
1.408527796513029118e-01
-8.002527927596682356e-02
1.198798574449896487e-01
1.139439410335121444e-01
-1.871578017276754047e-01
1.125376866663063413e-01
3.390897526204597612e-01
1.342925061595951798e-02
-1.546039490584827647e-01
-1.337090712592218789e-01
7.908119534378589555e-02
7.710235428976891514e-02
1.138735328465126789e-01
1.603596442774055941e-01
-1.443816777032455589e-01
4.700445952300626173e-02
-6.250496728053475670e-02
-1.786901694726313397e-02
1.755312096521587373e-01
4.593836515534719528e-03
-4.208233955401443627e-01
1.064077617964937911e-01
3.651092167285899248e-01
-6.652770453138885653e-02
-1.043220671137399663e-01
-1.782103474331309390e-01
1.899710148595091380e-02
6.286143965687069485e-03
1.414086011239613083e-01
7.397169455462331011e-02
2.357376917756278875e-02
3.588488405020324179e-01
-5.388891887683380788e-02
3.238815585192060253e-01
1.515188260893471084e-01
1.128599980700728533e-01
-6.468173150336554711e-01
-1.273149641246631436e-01
9.145209001249002267e-02
9.540465017674308601e-02
6.539151490769153086e-02
-1.198668232382966159e-01
-7.861991707742056745e-02
-1.652416161055649813e-01
-1.117261398791371124e-01
1.609033997534314031e-01
3.483857569738545851e-02
1.410183688537251789e-01
3.040632483079841464e-03
5.306940201076797148e-02
2.461917688413081118e-01
-3.699533613975484747e-01
1.809214093102039789e-01
-5.010762838717341960e-02
1.772781155157697186e-01
1.203821671349908223e-01
2.052713803666283629e-02
8.246029347363589834e-02
-5.825289466837452190e-02
-1.972069966512874362e-01
-5.192961365062546131e-01
5.090428547069003606e-02
9.902071228051707863e-02
-3.598990639033489147e-02
2.035569652994070333e-01
-6.567524190771929782e-02
1.536876867589533624e-01
-9.832861588695634980e-02
-7.280172169993184839e-02
-1.020744537443156325e-01
-2.354154485144347234e-02
-2.318527456828628833e-02
8.769551834041028338e-02
-8.565192477625729883e-03
-1.123604252946595883e-01
-4.155228744617817105e-02
1.247369934192165547e-01
-1.442992967491439626e-01
-1.556109499607692681e-01
-3.171626846828634605e-02
2.127811663093860314e-02
-1.084082576550933347e-01
1.509241425237241585e-01
1.835793723956188547e-02
1.004433299661726398e-02
-2.734910541869788880e-01
-2.337572455842722996e-01
9.735990510246828045e-02
2.413850194917459280e-02
-4.759789833744221266e-02
-2.690293404485611523e-02
2.460324202988115605e-01
-1.924699289153408016e-02
-6.842408780634752496e-02
-1.424946931563762786e-01
-1.794397310213446603e-03
5.887430722594121091e-02
2.022460931427605066e-02
1.593655289054951019e-01
-2.178342559468421369e-02
-1.438171826514386409e-01
5.753703490850333585e-02
7.770200668529426979e-02
-7.007914852268490313e-02
2.383866612625898385e-02
2.528738831099952566e-01
6.090506128497533839e-02
5.168893449442694965e-02
-1.138377839305813877e-01
-1.864584236196441605e-03
4.327636877650012370e-02
-4.377158944373364668e-02
8.113622117087559982e-02
-1.129915374979168774e-01
1.678264422751066520e-01
2.000622088458890724e-02
-3.398386400461467227e-01
-3.170562417315798132e-01
-1.858175589064779698e-02
1.349779234572744402e-01
3.841491359252042354e-02
-1.247421400036065886e-01
1.402763288752024995e-02
-8.313646915915694907e-03
-2.325885184314210596e-01
-1.357246161108641436e-01
-2.441653134601305952e-01
1.676856119405197021e-01
1.551596092597072596e-01
-1.377817312644632752e-01
-3.315746676124242676e-02
-7.675144106905239239e-02
-1.400528959172497867e-01
-1.306813192684278258e-01
-1.128712150817022947e-01
7.395899835123463661e-02
-4.361788968599960015e-01
-8.573884920630457651e-02
-4.148546446291648815e-01
3.151323241398006902e-01
1.009184708136622172e-01
6.300176247175383326e-02
5.265294641472533649e-02
2.654507589494761732e-01
1.476140782730707979e-01
-2.567672615881959053e-01
1.242365084245506401e-01
-1.803662842002466127e-01
4.073367181270228649e-02
-5.310403348581793637e-01
-4.631108595952947854e-02
-3.341582369262698776e-02
-5.889741943737442087e-01
1.100731388603313626e-01
-8.157188199798494077e-01
-1.719040033622734054e-01
-3.392453097758190567e-02
-1.315901020882914198e-02
8.918392963234010595e-02
-6.453926271747730814e-01
1.222758366066898500e-01
1.851186010930714471e-02
-7.060021460762347378e-02
1.371791545366421276e-02
-3.427873666245279116e-02
-5.866234915516293363e-02
-4.322028250454384990e-03
-1.726695511910086031e-03
-2.154288750737945457e-01
4.099499989736075239e-02
-1.055428359420807344e-01
-5.505693031503394036e-02
6.886940754407404330e-02
4.735672335079583670e-03
5.089756491705409863e-02
9.594919073611056504e-02
1.109672576204971534e-01
-8.093388222679175070e-02
-4.377127387579819034e-02
8.607496549940552022e-02
-1.745212164391150150e-02
-3.571540921081877706e-01
-1.966937318818212377e-01
-5.663600767000401270e-02
-1.948587707778906553e-01
2.505763639405676479e-01
4.704663923163024744e-03
1.884836121596085434e-01
4.461520006048324410e-02
-2.307547094572201529e-01
1.023455899930694746e-01
-9.359897164442161632e-02
-3.636227551801074487e-01
3.657974561455200058e-01
-7.276462021858462990e-03
7.941974764427105205e-02
1.066077539271419738e-01
-4.485508264305552717e-01
-4.054745075997906456e-01
-6.496215763074421334e-02
1.111819390544172281e-01
-1.062834084691726411e-01
2.092047359089676054e-03
-5.263438938692847902e-02
-5.661554215280023040e-03
-4.219088165881919490e-03
-1.673512754879206699e-01
-9.404057265175913560e-02
-5.039484104822762600e-02
1.589676948790639047e-02
1.980571493804554606e-01
1.183101838385066940e-01
-1.813753936428171842e-01
-6.816495734514378679e-02
-1.166679638106715433e-01
1.192937373715282634e-01
1.495997537492481932e-01
8.683645190517234880e-02
-1.893073243591126553e-01
8.835944098252122847e-02
-1.900287603210678300e-01
4.986133454558434874e-02
-1.080689650331629476e-01
-3.520836591260194104e-01
7.726848953501860851e-02
-8.476619753093576903e-02
-4.252485717079840244e-01
4.908244536497155530e-02
-5.981319548996174434e-02
-6.625241840064881316e-02
-1.146846139390837321e-01
3.139175964778902206e-02
-3.009955005660319149e-01
5.343685241913340850e-02
-9.431521298280479138e-02
-4.656007075177512333e-02
4.975557035592409472e-02
-5.513652540545066483e-02
1.939229332322398719e-02
-1.606940745884778698e-02
-1.402383086930191758e-01
-2.971823960733736142e-02
-4.094716430363681305e-03
-1.298804269779948138e-02
-2.562692150141265279e-01
2.433742925365279045e-02
2.073353825351220148e-01
2.157001593796049541e-02
1.983797182827299818e-02
-3.646261977494585221e-02
1.908176624188102823e-03
-8.171641305669963273e-02
-3.061874199274499525e-02
-6.552525600967390451e-02
-4.444647686127826958e-02
-2.254210517239389200e-01
-2.069658055307242450e-01
2.031270929574088835e-01
1.194224083678338266e-01
-7.651593335457387846e-02
-1.278965111160502433e-01
-4.356420816943548657e-02
7.033375187464091516e-02
6.781704597830665038e-02
6.312379559378177019e-02
-3.718967296372402420e-01
2.051716774539262544e-01
-1.139375877797897535e-01
-8.460673283389907873e-02
2.509147861975191685e-01
8.645127319711323755e-02
1.406306409470500507e-01
-2.057286427659474892e-01
-7.829495175614462621e-01
3.108163684674535368e-02
-1.175168813246046245e-01
1.069955026477651255e-01
-2.194603603431334593e-01
1.063330236680066487e-01
1.877565201728832733e-02
1.344574203005299666e-02
-5.832454697911922947e-01
1.039878553773062875e-01
8.213570003610266845e-02
-4.991310982773202766e-03
2.631716457622374494e-01
-1.721591437479522702e-01
-3.420447981792831271e-01
-5.171889175884922946e-02
-4.112657956508954382e-01
3.543453336492399797e-02
-1.514447937422758739e-01
-5.142371375084376500e-02
1.797721741617859248e-01
-4.117315629203391336e-01
-6.101687444653305925e-02
-1.637314207259130683e-01
-2.475275627881678431e-01
5.536993796553926761e-02
6.776297609463564908e-02
9.066927081541711897e-02
-1.013078368157772045e-02
-3.333348009938408990e-02
7.790070227703489725e-02
-1.734641930974535617e-01
-8.460404786253879206e-02
2.682481567324783711e-01
9.789300520244965942e-02
-2.328603246239807287e-02
1.689011573360846008e-01
9.480341740300488040e-02
3.208167553155252816e-02
-8.423735908369284209e-02
-1.912011670577976608e-01
8.379632212824141696e-03
1.324225292897874828e-01
-1.947856900281630388e-02
1.652996937969511415e-02
1.355507405217285244e-01
-8.286480796761996892e-02
1.789885191205043968e-01
-7.182015431947144646e-02
2.402445648815168533e-01
-1.011515278857510053e-01
2.515172698376401741e-02
8.630051682575302918e-02
-1.343797635013016523e-01
-2.665937497399210043e-01
3.778103238027967492e-02
3.115046343083825719e-02
-5.739312704560858153e-02
-1.424843619528082805e-01
-3.599179649453655983e-01
1.042046854351713209e-01
2.095114135509103248e-01
3.985796284152012120e-02
-9.707905735670686875e-02
2.749348126180022889e-01
-1.343577788566412967e-01
2.342780647690028417e-01
1.025443757790131666e-01
3.564672720828761937e-02
-7.644996355721704884e-01
-1.534286743343373505e-01
-8.985361627219706770e-02
1.055219498409507295e-01
-3.294297206270394018e-01
2.382699346965687914e-01
1.695614972749175386e-01
1.891956019462754102e-01
-6.384809112272876730e-02
-2.957738004117690250e-02
-1.170190963449030258e-01
-2.960858106268217105e-01
-7.712987359275010057e-02
-2.180993637172467386e-02
-3.459677828407765193e-02
-4.159197160257616793e-02
7.751788074437852838e-02
-1.770086446636569000e-01
1.287838656833393824e-01
4.029331231589307616e-01
-1.263497859169971649e-01
1.895457894656568665e-01
-2.559254790521535705e-01
-1.100658998436305491e-01
1.533145491166373886e-01
-3.939924495011841721e-01
-1.463332269602146685e-01
-1.194004084361969670e-01
-3.741941509390013243e-01
-2.791755905138137983e-02
-6.933429204466817763e-02
3.334621832725474799e-02
2.245212866482331204e-01
8.403729696583761566e-02
1.774702602277281327e-01
-2.026936524675730378e-01
6.132331964468006047e-02
-8.734366583505452641e-02
-1.864228498333956596e-01
2.285577237882452095e-01
8.559317945528502336e-02
2.876522595543823044e-02
-1.817758542473747463e-01
-1.328665903764325862e-01
3.083272860345354638e-01
1.236765940659052126e-01
-1.837051767886541953e-01
6.264303361636255896e-02
1.091705533457524163e-01
2.841651564387497886e-01
-1.005004863573890073e-01
2.085990264070007941e-02
9.475366335145221294e-03
-4.586989596110498946e-01
1.070250089820759393e-01
-1.064735388204125777e-02
-2.470366021050900140e-02
-2.157691358392529180e-01
1.564829471506107295e-01
-1.386845724590237694e-01
1.270410006374804723e-01
7.349023719031989865e-02
-1.086593789524759324e-01
7.448750043749852168e-02
5.581184524980664641e-01
-1.201042112777483545e-01
1.034218596191998074e-01
-1.228219454535141725e-01
4.291765550370975346e-02
3.442572109912677130e-03
-1.654886764683015932e-01
-8.971403063820995727e-02
-1.091232489498642627e-01
-2.722007084550695510e-01
2.990922349987595787e-03
-1.187443141554912901e-01
-1.136746744963330891e-01
-8.769459865438454516e-02
-1.641204672214407467e-01
-1.755617818675128672e-01
3.670039511286077860e-01
-3.703210987697466098e-03
-9.984643140807834827e-02
-8.105605943340532527e-02
1.462459565278705631e-01
1.352730135244480103e-01
-4.943435351632914643e-02
-2.191139292059493260e-01
4.666417019667096211e-02
2.764859886685231416e-01
-5.203792988473862069e-01
1.414959527983952747e-01
1.709755991344651949e-01
1.607970509884676380e-01
1.173418959372923842e-02
-1.074965503728626121e-01
2.009498044313039189e-01
-1.135719318073360740e-01
8.692339183809937031e-02
2.349925201719838541e-01
8.208956669609451112e-03
