4.416904071075888338e-01
-1.209186390143573986e-01
-3.145855887354975788e-01
9.938805470378489493e-02
-7.041771375251709708e-02
2.976361110207666472e-01
3.667054365223390566e-01
5.795789208501876955e-01
4.165678903364408159e-01
3.760170702147805910e-01
4.108624550661211239e-01
9.310510846741489877e-01
-1.140929709775572454e-01
4.331239390088473251e-01
3.005616615251642254e-01
-9.019748114320152999e-02
-3.514410062750124575e-01
-3.139616585818814087e-01
5.443154630871470667e-01
-1.129822443209864240e-02
-6.503187009806232766e-01
7.005072150438818035e-01
5.579170269496108725e-01
-2.747185099693329538e-02
2.191587752670459341e-02
6.201006361105809543e-03
-9.714545526028686706e-02
5.447589492319563353e-01
-6.878956675775387275e-01
6.215942807611607446e-01
1.677332329152618484e-01
2.193874875678701042e-01
4.086295589550163754e-02
-4.821851045471223784e-01
-9.369984197203879983e-01
-1.084485219717499227e+00
-4.074014680688653467e-01
-4.259061251516455537e-01
-1.213214416950121888e-01
-5.283604793285247014e-01
-2.707230075748137677e-01
2.291182398174625157e-01
-3.033935352196140411e-01
-6.625198226240154586e-02
6.412762320385129167e-01
4.033363830182478682e-01
4.612808692999166571e-02
7.110831293361028482e-01
-6.116984795682689491e-02
8.973331907336354885e-01
8.542807797711278461e-02
3.480698284872769666e-01
-5.175993082179306537e-01
-1.771893438123673947e-01
2.765311762449588207e-01
5.968180944241299191e-01
7.381059563914046384e-01
2.386784363443904267e-01
6.929899633059205533e-01
5.315755769536222308e-01
4.242181280154654344e-01
-1.970018888917066391e-01
-3.185124191482059941e-01
1.034138666677776985e+00
1.528966054822150367e-01
-4.434857322262602403e-03
-3.328456132686847813e-01
7.207548285498419083e-02
4.122194326129718367e-01
2.419074820923715619e-01
3.195565501540379993e-01
-1.738033360701184415e-01
1.770220674556336957e-02
-1.668039271241100741e-01
4.625283701292168259e-02
1.228886781528707589e-01
-1.021524543201376561e-01
-9.293125770032077959e-01
6.299740502010185983e-01
-6.801197315055264037e-01
2.253451741412289266e-02
2.890806519010229447e-01
6.479296730488040001e-01
-5.648259409128219000e-01
-2.793265762298739463e-01
5.506757550335971141e-01
5.704805149705365341e-01
1.946448192477760394e-02
7.154233417957345242e-01
-4.563186702370917724e-01
1.302154747896193954e-01
3.115975919447680487e-02
1.398665250738020394e-01
-2.745812032913558243e-01
3.500730065346905895e-01
5.680434665666930227e-01
3.193273964079183513e-01
8.767616811131559995e-01
3.227275263412669459e-01
6.791170163353377198e-01
1.688591575851916549e-02
-2.476233450532148161e-01
-1.228452024988799129e+00
-8.360184522730415013e-01
-9.871267528092605437e-01
-5.198532650114515707e-01
1.039738012670251982e-01
-3.979815039962354972e-01
-6.927024483919828890e-02
-8.450923940178983740e-01
5.387894904411068969e-02
-9.356197929425996707e-01
6.318681453481692634e-01
9.453764230697905280e-01
2.505355021821687456e-01
3.111241890790684694e-01
2.523722791957291878e-01
-2.922513315420669500e-01
6.228566824176887673e-01
-1.202754330155646922e+00
-2.539859584140973653e-02
-1.111061235690909976e+00
-2.029737298701467518e-01
6.005114686039718652e-01
4.948092216277936994e-02
3.215010221508596833e-01
8.269438000227566921e-01
1.802851458015078401e-01
3.763491413332393232e-01
-8.828861457214252084e-01
2.933686851366030801e-01
6.750543895504539371e-01
4.868837493259037807e-01
8.004420199487292109e-01
5.240927891408455608e-01
7.635419046551941147e-01
3.797294370703779842e-01
-8.250180495626954214e-01
-5.095450619198500508e-01
-2.906493171841220136e-01
1.035632415339275830e-01
-2.690260653290805770e-01
3.465585412645724173e-01
4.438551611048363044e-01
-7.624311483060643990e-01
-4.338163882468685784e-01
-4.107936287084655927e-03
-2.208490939340416459e-01
-1.596631887669741900e-01
2.364463510158288373e-01
2.198860450712913084e-01
2.385332931666730993e-01
4.600834653663056217e-01
3.026367706251884004e-01
-3.391984089251338097e-01
3.171433560485763525e-01
2.376941697711779655e-01
-6.806252668134050721e-01
2.612642537661654177e-02
1.098742926664861147e-01
6.523891408531778957e-02
1.501440907642157818e-01
1.739921640528826474e-01
2.063587911287452503e-01
7.243232674883006705e-01
7.328400431817511107e-01
-2.862255345367358816e-01
6.303217194064791862e-01
1.049357256059475940e+00
7.925698866906635276e-01
3.443012973581680569e-01
7.229823591768588242e-01
6.931668960113727129e-01
8.406142314160078843e-01
2.762763596361280105e-01
4.824621728101325391e-01
4.999320752882612240e-01
9.553548660707159579e-01
3.940482899965761510e-01
5.612738205250591417e-01
5.226232567209677660e-01
5.161876620925602843e-01
6.376411292171998424e-01
-1.288196427552137646e-01
6.786768107174917519e-01
4.572985019659757677e-01
7.295831469389328916e-01
3.089996415048809064e-01
7.077547719738576104e-01
7.424728669220829191e-01
7.957326307320417014e-01
5.927659502212552223e-01
4.833363093894641471e-01
6.469896437281837942e-01
4.897821845121932416e-01
5.439361008358143401e-01
7.131631953759007825e-01
6.591782685122875574e-01
8.355172356766432662e-01
3.896886483795483636e-01
3.585423198045335769e-02
3.488645383789435450e-01
4.662559627355782887e-01
4.331370116357956546e-01
6.129270039363734490e-01
1.257512354585441951e-02
4.941164827017396344e-01
6.022322146636838180e-01
3.860755805491025150e-01
5.020229745129808352e-01
5.658058016862671513e-01
4.075029209390594598e-02
4.735116591305928435e-01
-1.104760792873239611e-01
2.556600849583525181e-01
5.325055592489517098e-01
-1.165068501677593571e-01
7.461643107013332665e-02
-1.758312521542584328e-01
-2.111558186331297937e-01
3.124277896859795067e-01
1.967690090375486256e-01
7.633122163226112589e-01
3.299353705741512321e-01
-4.780525735961833611e-01
-8.543844343249805406e-02
-2.242360556507294045e-01
3.384905987467128341e-01
-2.914328383385846322e-01
5.889508024973727496e-02
-6.239227954298649514e-01
-1.379070729007983165e-01
-9.474366131290945514e-02
3.356182222430576512e-01
-5.883402053186761460e-01
2.463482112664520662e-01
2.473114862523974056e-01
3.971550033824375325e-01
1.100779629224142020e-01
-6.748760306413872367e-01
2.160262783516175567e-01
5.584411030793351438e-01
-1.153845698352462312e+00
-1.585976649013420281e-01
-3.200266169456010834e-01
5.147510127859953322e-01
-8.961808517515704731e-01
2.540032393545098022e-01
-1.875705016383946155e-01
-9.457564608132035255e-02
8.292163044711817754e-01
-5.594351317852107597e-01
2.934173529481885478e-01
-1.011610739583135077e+00
-1.225092214044076200e-01
3.730423465878037192e-01
2.773773566988532724e-01
3.505611557071565687e-01
-7.790462794768483468e-01
-9.262133400184902055e-01
-7.557207586029651702e-01
3.199364507205061936e-01
-1.145024468190366296e+00
-6.509973297496239875e-01
4.496528802299524230e-01
-6.035143190868503815e-01
5.371460295960431980e-02
3.089626593136497457e-01
4.709282757621933713e-01
2.615020395322098512e-01
-1.782053838963710557e-01
9.066861187881951611e-01
1.252371868619236162e-01
-6.955961938749740357e-03
5.179082752823959135e-01
2.175248892663719236e-01
8.164550750323039396e-02
-3.511385315388743655e-01
2.761430684418391193e-02
-4.172258960979348674e-01
-2.379594910317832657e-01
1.947745578762998808e-01
3.144071926556977203e-01
-2.274867224189702219e-01
8.323283429358567798e-01
2.041871795130005551e-01
1.897313345540784235e-01
-5.428286825449732400e-02
-3.556186122350795675e-01
-2.891556730831785216e-01
-8.441022784648244404e-02
2.639140949135736491e-01
3.756121717765537049e-01
-3.499191133972223700e-01
-4.345204729106654645e-02
1.143222433152424750e-01
5.620976309561707129e-01
3.381581292652339754e-01
-4.582288430715268923e-01
1.351861106545641233e-01
-1.621197838102592936e-01
7.308058783318148732e-01
2.931406114511211913e-01
5.870176027140895647e-02
2.145763679884329367e-01
4.960818974888769328e-01
1.065799298511632548e-01
-1.314965704659445400e-01
-4.755178121890441534e-01
1.848401506319259924e-01
3.097623511147871711e-01
-3.000909684779827780e-01
7.688344151536052884e-01
-1.104721364586722432e+00
6.519603469970319809e-01
8.200541701151506935e-01
5.443708931567047271e-01
1.079017904158642960e+00
-2.010604236120046850e-01
7.067195511328732138e-01
-2.533742887028239688e-01
-4.006368851347972826e-01
-6.189605194781150344e-01
-5.239833337116698297e-01
-7.016008336175928450e-01
-2.236148925988543368e-01
1.382139177016153235e-02
-7.789761099925471277e-02
-2.668098604795191564e-01
-3.054268482014289021e-01
7.999813429285633493e-02
-2.156509675064671727e-02
1.333859431636449933e-01
-2.385011996234109310e-01
-7.148646417834751965e-01
-6.549681763077093155e-01
-1.975189653564190725e-02
-7.591167751685621301e-01
-2.613805415215559869e-01
-1.216204274440103872e-02
-3.876090104371828771e-01
-5.958230185688346836e-01
-3.199493327351048966e-01
3.620970212587900638e-01
6.053225495524196947e-02
2.041334069795816275e-01
2.286980007032923534e-01
-2.280677099746428460e-01
-4.712432797794260941e-01
-1.963402183391985689e-01
-4.753691445990409492e-01
-1.226120488681982090e+00
-1.090092414265632748e+00
-3.263717932603912679e-03
-6.098744558408044636e-01
-1.166465863221024662e-01
8.551400310864308851e-01
-7.602002883744710671e-01
1.130836139464039269e-01
-7.634683459814839424e-02
2.110286969997639539e-01
-3.743522573112326168e-01
-6.095905960031469117e-01
-6.461244687691640731e-01
-1.534490934663649830e-01
-5.386991837907441349e-02
1.460150115999397646e-01
-1.554507218615371222e+00
-7.221983328921324219e-01
-7.340646203749940923e-01
-1.182917641249262158e-01
1.273312740583551483e-01
-5.570683637948232736e-01
-9.473857366233398025e-01
-1.232364273886480399e+00
-5.446764181848033903e-01
-9.657120849015573549e-01
3.294716621366597931e-01
-2.318104500490558717e-01
-3.796156155150247347e-02
1.054411197117774701e-01
1.498693431377811913e-01
-1.187111757472056439e+00
-5.084128743066548273e-01
1.018067214587524694e-01
-4.610612246575808149e-01
7.084967435736112817e-02
-8.332960369344105667e-01
-1.706638409741738360e-02
-1.911043785219008473e-01
-5.419392851670609135e-01
1.175678345723250723e-01
-1.240710019492127086e-02
8.742986254089715747e-02
-8.436921897149874949e-01
-7.416530455937320188e-01
-5.042923495800234468e-01
-1.138923504794982833e+00
-5.124910587570305660e-03
-7.350411713577940098e-01
-6.302604073348139213e-01
7.511672492279521454e-03
4.450296605024879615e-02
2.374800577654894440e-01
-1.117365642797563674e-01
-1.001533868011786232e+00
-9.555742153836126462e-01
1.077987645387958660e+00
-3.450896451728411862e-01
-3.398491214118584680e-01
-4.646596210585139386e-01
-9.809013604412807341e-01
-7.750900776539445536e-01
1.725721200648756004e-01
-5.138432037168813027e-01
9.367937449114625836e-02
-2.761012950148955536e-01
1.452818479073610392e-01
2.994236218598853583e-01
2.369523995733762711e-01
2.179902303280194242e-01
-4.546009058876962494e-01
4.515736052521850397e-01
-1.717207682822911696e+00
2.278290027712217558e-01
-3.835625548512509586e-01
8.556535946886689725e-01
3.873635425632441787e-01
5.824258968528454039e-01
6.660322978187298570e-01
1.878203810808788954e-01
3.889445176054890374e-01
2.909626053433944093e-01
4.929323699243587376e-01
5.721419219625331065e-01
1.845525237834175214e-01
-9.693866818831009535e-01
-1.089159437826157761e+00
-1.078489244221312759e+00
-1.185244368653618041e+00
-6.164645172275582397e-01
-8.070395605705011910e-01
4.192983021311716962e-01
-4.707403521843449568e-01
3.656744022870677679e-01
-3.215493886155239567e-01
8.166135601912113962e-02
6.616745578941279904e-02
-3.688230239520054465e-01
-8.936595100925758262e-01
-8.718083819621577635e-02
-7.262205297483680377e-01
-1.128504141732671773e+00
-3.805054663628487099e-01
-2.540653302459228713e-01
-1.054676650628250556e+00
-1.428251639866023215e+00
-1.314701758079867000e-01
4.099806966910197747e-01
-2.822957521081456700e-01
1.755478286538368349e-01
4.381265547576761454e-01
4.376974054196471342e-01
3.602570037003404169e-01
7.811324104992757589e-02
2.290753099379397861e-01
4.184141605939646902e-01
-7.793728365738650243e-02
3.363281143565454712e-01
2.888829192487651354e-01
1.523078594834967603e-01
-3.477619144194986078e-01
-3.143014455086723391e-01
7.995881452779732834e-01
2.181480111213833784e-01
-4.774864564014019153e-01
-1.937741655375313510e-01
7.033184363910923720e-01
8.701495870656051901e-01
8.981205775661266211e-01
6.264380141806900060e-01
6.764507759790725494e-01
1.053335705064279537e+00
8.077142381741472255e-01
3.619563848275942353e-01
4.686439548541420086e-01
6.640266817132383093e-01
7.285372560805138953e-01
6.859093481007005888e-01
5.979246144885865810e-01
4.051731240617651442e-01
4.891400175619091129e-01
7.251061627936098430e-01
6.015770454786301125e-01
1.860410664510651069e-01
7.047886807100396389e-01
4.578226711006381788e-01
7.905758294452193136e-01
5.273278493128885636e-01
3.974568612091902153e-01
7.944461945198534603e-02
2.893340881477057258e-01
3.061189156040143855e-01
4.337817802899176511e-01
5.476232808203103097e-01
4.853993919546272240e-01
4.105091401157263120e-01
1.589071292002467162e-01
4.153529075763220391e-01
5.596780152125513386e-01
8.301102132649198495e-01
5.905558326028331750e-01
9.440114594867735631e-01
4.275408287872298208e-01
8.700141082224844835e-01
6.506505749392140769e-01
3.406284974297395518e-01
1.864509733068185904e-01
7.246969393080017197e-01
7.730416117370917384e-01
4.835285903896066051e-01
3.239994623346126312e-01
6.049062911396020370e-01
6.554181015975815150e-01
6.030980814504146581e-01
4.899058821335082192e-01
6.454926050762030965e-01
7.741200858426008358e-01
5.533956832866803177e-01
6.383052286084486271e-01
5.219805715158046810e-01
3.345152554309021448e-02
2.674123016503052730e-01
5.480924437925004111e-02
-1.508638531897711077e-01
1.554833615646592782e-01
3.338765564658126017e-01
5.918064769948967220e-03
-8.261141699309634268e-01
-8.243466313041027949e-01
-4.597786030231812426e-01
-8.855301205071921533e-01
2.761328964584662815e-01
-1.845972940352884617e-01
-1.205939808431802263e+00
-4.318669861461908455e-01
-5.517533634886101490e-02
-7.828466000912036593e-01
2.675780110594947470e-01
-1.726852607783254112e-01
-7.295419239278175816e-01
-5.988805837756223660e-01
-1.664814094388326893e-01
-5.665635085014685268e-01
-1.092438908849719281e+00
-4.967414189907229383e-01
3.307828865299019400e-02
7.009734152686698805e-02
-2.224724814338057133e-01
-7.427676990972543747e-01
-2.015557978776183201e-01
-1.912704179175624686e-01
-7.752656813673340919e-01
-1.244984276105723708e+00
-5.249514476620983361e-01
1.511587525696292400e-01
-5.498624012938420069e-01
2.560052896794796085e-01
-4.792755328828384731e-01
-3.107439337274962021e-01
-8.537243901390829670e-01
-4.905001061477188284e-01
-3.784979949120004794e-01
-9.768500033191639398e-01
-8.616435885944090378e-01
-3.459592368451253064e-01
-1.038783707310654947e+00
-1.937351261835567884e-01
-6.035819082719153794e-01
-2.968942257163759493e-03
-1.919910250001186647e-01
1.882253334124620869e-01
-3.136759541488142733e-01
1.691332665592630013e-01
-8.856508129217602887e-01
-7.217943421350027089e-01
1.959998999352628168e-01
3.579182871284185552e-01
6.313142216211822255e-01
-1.123867538627706164e+00
1.874551137136375722e-01
-1.861986043417192538e-01
2.031833333474425754e-02
-3.897791833273167028e-01
-3.818373070371042788e-01
-2.637013488855282847e-02
-3.440510648578443131e-01
-4.774044922634831933e-01
-4.698520610652842100e-01
-2.076117515151359172e-01
4.286191905905570310e-01
2.394351723006967469e-01
9.854727637899408643e-01
6.716928728306621466e-01
-4.645185033612338893e-02
6.659041353989760825e-01
5.830169055774361286e-01
5.263420522708300853e-01
1.643393014806821817e-01
2.321163757221948731e-01
6.976348583940028547e-01
5.746569332388621332e-01
7.286243929554537813e-01
3.968348301426320446e-01
6.294580599195556125e-01
-2.025924598014788511e-02
3.324915600905028468e-01
1.667088344361505048e-01
-1.699483802109126585e-01
-3.337842630790112675e-01
-2.893562825197034671e-01
-5.223762466337353305e-02
-6.019232025665631758e-01
-2.758399177427822702e-01
1.088307173078430744e-02
1.797337991649310962e-01
-2.209809787485592092e-01
1.488505988538234293e-01
-2.421430434816534277e-02
1.289386760405321526e-02
1.997222303540382160e-01
4.918189576575567323e-01
6.183049532789541836e-01
2.295698257875385673e-01
-4.012490835993035576e-01
-6.534960742904386000e-02
-4.128621156815357462e-01
4.714728963241168191e-01
3.753212829312926879e-01
-4.963885248285808682e-01
7.713569989946916783e-01
8.697575855883614426e-02
1.965284312909727771e-02
4.475269347750211457e-01
5.723699696250814650e-01
6.251899470208307497e-01
6.805963489075202988e-01
6.760843924761225088e-01
1.450332689658148100e-01
2.075415286912430934e-01
7.188029795813395406e-01
3.804360760117507234e-01
5.981185476910857446e-01
6.937630608227707274e-01
4.850014212445463713e-01
6.859589298254877843e-01
8.792205609396915866e-01
7.316224628180462153e-02
7.285748747556894944e-01
3.265485491858555744e-01
7.674741371917540578e-01
2.001085393076298610e-02
5.228345065016155591e-01
1.045999694075469416e-01
-4.356765699708225470e-01
-4.301979599490409201e-01
-6.183560543091672912e-01
-4.801635548094193018e-01
-1.393750297469526833e+00
-2.857382255061714504e-01
2.591649845307316125e-01
-5.493322992505310642e-01
1.691892302335915865e-01
-2.723379757074723129e-01
1.345095114526131674e-01
3.403621406230363661e-02
-1.291926857279838414e-01
-7.295873466104940697e-01
-3.261386957271700249e-01
-7.434615040561353139e-01
-9.697118882698592124e-01
-5.283534829933622667e-01
-7.888908200247664038e-01
3.556009778999815740e-01
-1.250176543682951780e-01
2.698959905975431006e-01
-1.175536725444480846e+00
-1.419054723189007383e+00
-3.764811441331964992e-01
4.844961110774719318e-03
1.358910117868183387e-01
1.475190844855611694e-01
1.328335301295787696e-01
6.226040013520767191e-01
-2.167365606539860823e-01
-1.655509512130947658e-01
1.541091227923123419e-01
-1.380589550162473512e-02
2.355644623652517200e-01
-5.988746850694319779e-01
4.977832790384756900e-01
-3.044382436963028460e-01
1.512733379359213204e-01
-3.050541877658633494e-01
5.915185037552459502e-01
-4.768940342629149898e-01
4.968656609042488292e-01
1.142453273098616717e-01
6.097922040963930090e-01
2.040626900595861049e-01
4.003196837818819021e-02
-1.116488557811583099e-01
2.002553323736274149e-01
9.816157838996609000e-03
-1.809210663833869803e-01
-2.245938858176524944e-01
-6.167244203153254833e-01
5.117741556939977565e-01
-7.488330090827605146e-01
-4.751604412906318409e-01
3.494043432135033461e-02
-4.895257427126314953e-01
-2.170652298841191652e-01
6.400195031224423237e-02
-4.764686142139787361e-01
-6.517369527190003398e-01
1.016717006851510924e-01
-4.655071028724309112e-01
3.754631076126059563e-02
2.660341153989169705e-01
-2.997108499274362403e-01
2.158424943667077711e-01
1.752226317699800695e-01
-7.458089966857295305e-01
4.558463156420132223e-01
5.484260512134359056e-01
-4.461329179223760266e-01
-3.415364266409330884e-01
-1.209306988930339000e-01
5.966410522227504759e-02
2.803178328110691314e-03
1.377006827308845938e-01
-1.242644122311826305e+00
1.061708143190809861e-01
6.209739350147267523e-01
4.102375836604453263e-01
5.942224493054776291e-02
-4.254120663492897969e-01
-2.114383015857891346e-01
4.298413413128695515e-01
-5.080130855703721138e-02
-8.348893357346973132e-02
5.039774088494010096e-01
-1.271589188065200549e-01
-9.912422076051914666e-02
-5.783596554020959957e-01
-8.235592826530456489e-02
-1.544202409795610409e+00
-9.418066718810561566e-01
-7.628201637556055736e-01
-2.550406964222260431e-01
-2.066101320822619214e-02
-1.022632030967884353e-01
-5.512958130013468905e-01
-5.149015533819187862e-01
3.717177603482563208e-02
-7.561072835429853978e-01
-3.709438067148478346e-01
-9.736923676876855227e-01
1.591935173669970643e-02
-7.853947117042726633e-01
-3.473221038377873326e-01
-4.773467868951066229e-01
-1.470975505237252512e-01
-6.694502427007508194e-01
4.984356837545651092e-02
-7.990213215523422896e-01
2.797480732698280903e-01
-7.497683848289771191e-01
-3.451106753404122873e-01
-1.102436200699619395e-01
-3.137797279239071813e-01
-6.952159980375884896e-01
-4.164598454827945773e-01
-3.065203188228783349e-01
-3.946122209256530677e-01
-3.712465363474762997e-02
-4.128782127456270268e-01
1.713234588191200336e-01
-4.837605712910368339e-01
-6.381701882588247665e-01
2.925796588309476642e-01
4.110491272002549934e-01
7.257474111467288047e-02
-1.026747730899147282e+00
-4.862717125508903004e-01
-2.541597169376337284e-01
-7.570121906068948414e-01
-2.165725359675277698e-02
-3.477167636544157836e-01
-4.790516279936358202e-01
-6.492569049541951909e-01
-6.168464508560539405e-01
-2.761589032667238208e-01
3.479168778322314637e-01
2.180236233779687949e-01
-3.561631553295274144e-01
-3.945738134774334771e-01
-3.324356136034812836e-01
-4.547300071562824786e-01
5.734263215888465437e-01
-2.855801446968540547e-01
4.013350417560211381e-01
3.101242156216577617e-01
-2.802503660961198628e-01
-8.310093803324906103e-01
-6.368212050049418260e-02
-5.712569020318696289e-01
-7.848269362301528718e-01
-7.085167090451218730e-01
-3.887544823689976226e-01
-7.452866199305722972e-02
-5.131816173024443817e-01
-6.905044434602926051e-01
-3.333543781206711465e-01
-9.263249553794393742e-01
-7.248129975651663726e-01
-5.661641264801322571e-01
-8.070647299250709450e-01
-3.243162811165787307e-01
-9.768102303244898810e-01
-8.055039410724793569e-01
-2.219072861166739297e-01
-9.987796600521389179e-01
4.392755001797665759e-01
3.655435267585908643e-01
4.942755653003111371e-01
-2.786921741749468495e-01
-3.862045011146321705e-01
-5.193719900986923932e-01
-7.343420043498730676e-01
-2.545944695091306720e-01
-3.223482395234521514e-01
-1.108589927553706306e-01
7.301093772083551425e-02
-3.562681349727994662e-01
3.771718700680107839e-01
2.072893289574815057e-01
-5.261898865527178115e-01
3.624158953502901181e-01
5.143598075662905167e-01
-3.378225363244252155e-01
4.985474802853326337e-01
2.363969541731271995e-01
3.803649114287725452e-01
4.526094950406206463e-01
-3.928898915155563248e-02
-6.385304199612731324e-01
-3.989836124184373833e-01
-8.717822356408154727e-01
-1.445753048935251583e-01
-1.256808350525403295e+00
6.284616027982308228e-01
-2.317396936663430329e-01
1.681449657845283385e-01
-2.736193958197772891e-01
5.512691925909526391e-01
4.525841342021472147e-01
-5.109321808981642787e-01
-2.730042059593114079e-01
-9.871717787006420997e-01
-3.656237799657770515e-01
-5.788193604899343203e-01
-1.845981336744746681e-01
-6.832114489625391585e-01
-7.417721132955403807e-01
-7.752800817869719419e-01
-8.487506463868887963e-01
-2.619822614340758804e-01
-2.171812264114834634e-01
-5.621701491280579610e-01
1.275621921439591966e-01
-6.043978486351726104e-02
1.857976187871375473e-01
-7.832768117005799446e-01
-1.705558227113106728e-01
2.768540173030181739e-01
-6.519692251788891668e-02
1.632964750142569810e-01
-1.428247734416030923e+00
-3.817310696222316335e-01
-7.656327771858689735e-01
-7.566620464289672832e-01
-1.400845029941512943e+00
-2.708759483066333629e-01
4.884460982284664077e-01
-5.794599138321495646e-01
-1.871343535141310188e-01
1.487672209952742297e-01
4.013270069947775798e-01
-1.345501853755881827e+00
4.518445443399314310e-01
-1.048856805899357203e-01
2.466544065088889515e-01
-8.865150346894701272e-02
-1.133983875814956327e-01
-3.110835295635095976e-01
-7.780333876938128057e-01
4.389544664285390807e-01
-6.005715538030954592e-01
-2.771820966391914665e-01
-1.963331258776765120e-01
-6.765535104875892991e-02
-4.780488808257848943e-01
4.543479687312944604e-01
-2.878225147917120585e-01
-1.371313167371160657e-01
-3.884550933648900917e-01
1.986701613684211110e-01
-1.782291885965453515e-01
6.236267819424717862e-01
3.552434464992451080e-01
8.010395219368952047e-01
7.189924248985549507e-03
-3.234296053646735364e-02
-7.245073835164739240e-01
1.567227991850356772e-01
-3.885754305387483232e-01
-6.292225247491329831e-01
-8.287328463691849834e-01
-1.189584934304403152e+00
-8.153097874647522447e-01
-6.992854178331051607e-01
-7.567781340264572165e-01
-6.314152030679984554e-03
5.919877456575951546e-01
1.886001752673313950e-02
-5.721799323871769039e-01
2.621622751433455578e-01
-1.001953837590751073e+00
-2.092127199416982108e-01
2.066767435243494766e-01
1.576107421421604204e-01
-5.345102287296648047e-01
5.892984043940914241e-01
-1.745879481120792276e-01
1.992360755661105043e-01
-1.159361658975174958e+00
-1.864787172762925188e-03
-2.138035233140508640e-01
-6.490413753138944974e-01
-4.146188551125860600e-01
5.943270071123851229e-03
2.119251486450298427e-01
5.604344900193841683e-02
3.125325678003313956e-01
-1.871228816058203570e-01
6.844635853562435202e-01
2.263531682085387908e-01
1.524742198393486126e-02
9.980204441175766217e-02
-1.154898811357263216e-01
8.966744089032319120e-01
1.502543321149566458e-01
2.608415597707436917e-01
6.379372331317296752e-01
-1.405763182605984096e-01
3.311257402767908697e-01
3.223944327165089163e-01
9.398954697380082490e-02
2.728491498844537455e-01
-8.198818436465549198e-02
7.048350237900659343e-02
-5.339375642327185423e-01
-4.317501301027694693e-01
-1.254576293719742441e+00
-7.233596771785419932e-01
-8.654361303892971202e-01
-1.987407270061661898e-04
-1.147467659305527049e-01
-9.773731906057676611e-01
-7.741392001288910363e-01
-8.366739826100483279e-01
-7.855557148188823113e-01
-4.462316448244023626e-01
-7.696421962565174191e-01
-2.783810098577055303e-01
-1.087902721322611121e+00
-5.305562883713299538e-01
-2.375287406932539425e-01
-9.312753258655344091e-01
-1.253851783131735287e-01
1.233132384804981330e-01
-3.588906601422444109e-01
-2.084644646309081750e-01
-8.240734299398412288e-01
-1.116619997917932983e+00
-7.270851894039885854e-01
-3.140612880114370675e-01
-3.384924253165429442e-01
-1.248945011922481862e+00
-1.054545548975991176e+00
-6.996739372502516208e-01
-5.109659403553454271e-02
4.814635574668633677e-01
-2.884284322015239210e-01
6.686328198209289253e-01
-7.403479746821416130e-02
-6.396638211100313942e-02
-3.562016329586845109e-02
-1.142754665487242666e-01
6.837646136569042188e-02
-1.071494999385683267e+00
-3.371152769621732492e-01
-3.718454897705129603e-01
-1.806966389449722946e-02
-3.524759285938748876e-01
-2.938276907202996141e-02
7.377696624788186996e-01
4.544899418007977143e-01
4.425574934786609682e-01
1.029448444113648803e-01
-8.084655623619547704e-01
2.090152382715608215e-01
-6.259903817833527562e-01
-2.019021365602439999e-01
-9.358097614535808295e-02
-3.120787895499089193e-01
-1.363290185048275038e+00
-1.135084119545397341e+00
-5.079798163427089452e-01
-6.567760603619587911e-01
-6.663897979999555687e-01
-1.133118726012727340e+00
-2.907795301446302050e-01
-7.765687044771709679e-01
-1.297569741952037337e+00
-4.211455379253271625e-01
6.108470475684348866e-01
-8.776567140421742685e-01
-2.363773153589157627e-01
-7.157296792742019742e-02
-2.423517380808459520e-01
-1.729397626569231447e-02
-1.292514406074678733e-02
-1.872399899095603948e-01
-6.308871497519051852e-01
-4.442049148615629939e-01
-1.005561240342851326e+00
2.297522973559603665e-01
-2.730394557326836780e-01
-1.038577498863968884e+00
-1.625517480580258023e-01
-1.203696516381018045e+00
-1.473343714032044616e-01
-1.027775571851341913e-01
-9.739878687677300251e-01
-4.500653299139023567e-02
-6.222166875069918834e-01
-2.816331869592361148e-01
-4.498217801582570785e-01
6.545340392286933540e-01
4.115797130831599371e-01
5.524839226039622853e-01
1.024717193206421406e-01
-1.934242962415743672e-01
3.736114615861393928e-02
-1.560121021575297355e-02
1.029225216608933985e-01
4.327294205376229219e-01
-2.704842380226478715e-01
-4.827063930017321813e-01
3.727131870631552046e-01
-3.550752680404331563e-01
1.369894509116758030e-01
-6.787362090667052872e-01
-1.828754515222578633e-02
-4.065181120149355953e-01
-1.128728666073436582e+00
2.994218733298855128e-01
-2.190344684525233621e-01
-3.730500711654183288e-01
-6.486044161646548067e-01
5.294174660636704610e-01
-1.432825565397862211e-01
-1.890321323928402519e-02
-1.155731533656523258e+00
-1.036116430274234501e+00
-1.220942368724864391e+00
-8.638934038334733501e-01
-6.469003161275133085e-01
-8.226231641113597171e-01
-2.728812133820773811e-01
-8.587977104369129977e-01
-9.021612536908457658e-01
-2.806637451226273172e-01
2.516306790240180336e-01
3.549500038591162365e-01
2.757992144245789978e-01
-2.024023557500352621e-01
4.887265283555226603e-01
-3.891072317930695523e-01
4.864571271537795893e-01
9.289856344432156909e-02
-5.004320199724200391e-01
-1.552465802766102299e-01
-3.994440606430947616e-02
-3.086841009566176908e-01
-2.687175353534209180e-02
-4.026542308237188728e-01
2.939202037077311425e-01
-3.199721445514091545e-01
-2.291048980685632050e-02
-1.180770932357321223e-01
1.208720731006448640e-01
1.269363190612398384e-01
-2.443232634061268671e-01
-1.225251095025428061e-01
1.660726324434373680e-01
-3.398893798456198434e-01
3.806672261003924973e-01
2.277498868013696220e-01
1.031964773586487166e-01
2.400499643903488967e-01
4.543639467053468550e-01
9.314154416876803400e-02
-1.305237550314277961e-01
-3.382736203006885822e-01
4.127933282908106682e-01
1.732878333073192001e-01
6.820310067638791773e-01
-6.294955883550549247e-01
-3.423792346242890972e-01
6.488892999685316743e-02
-2.170886063821619028e-01
6.636435887352383836e-03
6.134255476670238405e-01
7.080894997359185594e-02
-6.057798211207009453e-01
-1.078070544885456394e+00
6.094395159892805613e-02
5.335676346594455666e-01
6.343017195079034831e-01
2.567521234985671308e-01
-5.215047893133202273e-01
-3.566910879664649814e-01
4.261017496616809064e-01
-1.631440105594163595e-02
5.724050915578203780e-01
-1.711474811501071391e-01
-8.387984627902032031e-01
-1.399177128990360119e-01
1.673564885390430024e-01
1.013578473138437852e-01
1.051597989434398805e-01
-6.665773927970676527e-02
-4.329750300205864044e-01
4.133011783881819778e-01
2.445945782586953221e-01
1.828326089510448338e-01
-2.452524921438657690e-01
-9.217325487053888988e-01
-4.971965628180518570e-01
-4.045520781632775953e-01
-1.318100069733002311e+00
1.778899960615361597e-01
2.543836323987030412e-01
2.019379048790240563e-02
7.516005081751606642e-01
-2.532118600042436163e-01
-3.565793455074352247e-02
3.436650982835492973e-01
-2.073695809632037923e-01
2.248695477428736544e-01
2.680226698131955576e-01
2.030384916222533198e-01
-8.628997303610255187e-01
-8.285560604483575009e-01
-8.900578706591628642e-01
-6.397848868084310414e-01
-6.668112346981178717e-01
-8.754304614439157861e-01
-7.966294350816635061e-01
-6.724535280185556241e-01
-1.038903807984572047e+00
5.946490621892142753e-02
1.239876591086931101e-01
-5.347827385163450575e-01
4.895325296315708452e-01
-1.266284531086639409e-01
3.177063769798383341e-01
3.582015202278281130e-02
6.260884295278141831e-01
7.233756900764868325e-01
1.570231573435746930e-01
-7.759189646954914310e-02
2.109580593518300129e-01
9.115861851409008676e-02
-5.984467794476733271e-01
5.237602052103260825e-02
1.946499369444247285e-01
1.364459983570655288e-01
5.593656994688538386e-01
2.325712059094748596e-01
-3.331670386786652061e-01
-4.663888120821428340e-01
-8.603775968726178336e-01
-3.740963327072827083e-01
-7.091989116346446576e-01
-6.831860861924082817e-01
1.397843231229277672e-01
-4.071476957075614300e-01
-8.354116953661456790e-01
-9.125381549718074581e-01
-1.280220100702502251e+00
-3.102964993107400204e-02
-3.691687701080977324e-01
1.644835787048415099e-01
-5.180669932185472115e-01
7.893658327963577748e-02
-2.716834125684301077e-03
-5.266270968681949771e-01
1.254652099985682501e-01
-4.740311231242440582e-01
-6.360792959369769850e-01
2.519147221260234840e-02
-7.138935907688264138e-01
-9.084750709375576383e-01
-8.751352787449429016e-01
-1.244916756595510376e+00
-6.227863595720878331e-01
-5.900775195206356960e-01
2.792296050613656266e-01
-6.856858437301257547e-01
1.457360941464682647e-01
-2.712310321486080533e-02
-7.837129401479142610e-02
-2.824553469151936946e-01
-9.264766217590035824e-01
4.247312098340002562e-01
-3.933503582423509837e-01
-1.550714152425034242e-01
2.156710022227422141e-01
-5.902247397833344511e-01
-9.395829707429559363e-02
-1.064027977389889301e+00
-7.838306068078284561e-01
-2.694625991517580199e-01
-1.986707373126548881e-01
-9.715547712932844915e-01
4.798097366057754165e-01
6.391915360328052909e-02
-5.698519157778079158e-01
-1.321383914060429543e+00
-5.636654945808768913e-01
-3.564324355309511083e-01
-6.736944152478736569e-01
-8.759224398094010988e-01
-5.419654523775362387e-01
-2.317325254965163783e-01
1.948824815746447170e-02
1.351288128633038599e-01
-4.609491645825606887e-01
-9.328692273601939255e-02
-2.849701153933270059e-01
1.123496767092537763e-01
-1.729477253834076078e-01
2.250052644913659028e-01
4.051017882189600350e-01
-8.756419183620477442e-01
-4.287973969602774105e-01
-6.317472282406452200e-01
-5.063636932916093514e-01
-1.219913536714547053e+00
-3.457267066010542012e-01
-6.875493433302971580e-01
2.744257609850929772e-02
9.905655856371187173e-02
-4.235094184530139305e-01
-7.196768938494941814e-01
-5.424184724950228964e-02
5.863239297595800557e-03
-6.838009834408369514e-01
-4.273986955485144512e-01
-2.411355429306722142e-01
3.034395475834077427e-01
-1.096552319798977271e+00
-1.167197162529861609e-01
-8.869855725725575013e-01
-3.611974757779869427e-01
-9.832746338070075254e-01
-7.347113675750631678e-01
4.553251048221787500e-01
-1.307336712228882036e-01
-4.192282480532715794e-01
-9.063020190713377833e-02
-4.972066898742221186e-01
3.431006633328689270e-01
-1.328406521596093848e-01
-9.390178493198222398e-01
1.294299890693962063e-01
2.098819032464767087e-01
-8.234364417439348216e-01
-2.473802437731762172e-01
-3.479268436733302661e-01
2.127023150167446364e-01
-2.999821775619881947e-01
-4.403077335026228112e-01
-3.713240776792821052e-01
-1.507376658373957463e-02
-7.371373139563300869e-01
-1.834620825213088280e-01
-1.388482600935748990e-01
-7.434911792610570114e-01
-3.000589864258904615e-01
-3.524484900651652652e-01
-2.171000628137528810e-01
-4.162325468427709452e-01
-5.728695335976518033e-01
-1.256135666369831982e-01
6.724095316175382996e-03
-4.086606967104292609e-01
-1.384672669937477563e-01
-3.662313871012777833e-01
-1.161291100438068546e-01
6.215639071701167112e-02
-3.714935214866798563e-01
1.179642436652646592e-01
-1.718058281671002163e-01
-1.541894667275054143e-01
8.896686731044044227e-02
-2.301015299865361297e-01
-1.794128630902998983e-02
-2.064489184975688563e-01
-3.903903533883854027e-01
-1.232384554764606177e+00
-7.883134303626236905e-01
-9.257118836297993647e-02
-8.743368238005538862e-02
-1.201551163225188790e-01
-1.174208119029395564e-01
-5.278624301756583426e-02
-1.312521587572449411e-01
1.974520818170565906e-01
-1.855745524472120489e-01
-1.911162552024086303e-01
-1.211631606860623656e-01
-1.536385187717030643e-01
-1.196210789188827811e-01
-2.920864642961723545e-01
-1.889747927769619695e-01
-1.179769160875967365e-01
3.530788999890463464e-02
-4.184385437483395531e-01
-3.647840034135138021e-01
-2.569005618171774780e-02
-2.742811953861941654e-01
1.260314126993568873e-01
-1.727866614150417590e-01
-3.015307652373795944e-01
3.204154017197493459e-02
-1.260663340537464538e-01
-1.171481492601179480e-01
-1.166991487125394050e-01
-3.508728321409242401e-01
-1.096556853075136423e-01
7.179418471200447183e-01
3.808556340346466729e-01
-2.996135296947289271e-03
-5.749830146458614899e-02
-4.190885667698051598e-01
3.758727379894395704e-02
-1.283542412360022256e-01
-3.271993150250601667e-01
3.779972182343480092e-01
-8.185985486049867088e-01
1.514898349938825217e-01
-1.268180289385628934e-01
-5.980024825958435430e-02
-3.718611907135080941e-01
9.023330084107157589e-02
-1.388771268888240318e-01
-5.941249711689948754e-01
-1.651857843548405202e-01
-1.204472291755518953e-01
-1.278759537640256905e-01
-1.154008659407630144e-01
3.471616860914388258e-01
8.651977481207612231e-02
-7.062074240297759598e-02
-1.651566520482065578e-02
-6.870316478879270328e-01
-8.448792564917262382e-01
-4.606752293294655298e-02
-2.750151192347238815e-01
4.668382819139822448e-01
-1.123723315879382734e-01
4.091424828018457860e-01
-4.101255306933967448e-01
5.064407479250194154e-03
-1.774627928256937992e-01
-3.568564347763237277e-01
-2.580283370903290741e-01
-2.106568820062948780e-02
2.204465911008104129e-01
2.113761875251828071e-01
-9.540448835364320201e-01
-6.443109976454585164e-01
-2.378020689901975682e-01
-2.147238066299714254e-01
-6.806210886950531114e-01
-9.364950338657980211e-01
-5.729877349550785981e-01
-2.349513111251994024e-01
-7.723622078383640677e-01
-5.386536446715571858e-01
-1.964982907822213076e-01
2.132572927588319844e-01
-9.027512533417936247e-01
-7.492398371979274163e-01
5.552994489720076976e-02
-2.366488553884575630e-01
-2.481497249204007161e-01
-2.839376350076833200e-01
-4.878883915503282043e-01
-5.569347272574994706e-02
-1.110387398591796693e-01
2.774329105039277099e-01
-3.915619468501956718e-02
-2.571234528392785101e-01
1.985571426231890202e-01
-5.385665848691165714e-01
-2.266357567040551690e-01
-3.105350352268123060e-01
-3.218727676816366956e-01
-1.395459236099753642e-01
-8.998110619960723033e-01
-3.197122096584397166e-01
-2.426222243775160436e-01
-2.039528921823118013e-01
-4.409843436500849867e-01
-4.197503833147906427e-01
1.091654056840049014e-01
-7.375663902016263984e-01
1.132153123052530297e-01
-2.377190177920349701e-01
2.766765789839286879e-03
2.345237705982362586e-01
1.127666997005799310e+00
2.816376211759134551e-01
4.121322533587746251e-01
2.026680697936549258e-01
-1.500330383006536206e-01
-1.444056123350450915e-01
-2.690789188620121286e-01
2.308531329054716863e-01
1.447511564883837386e-02
1.945903061206061269e-01
1.611598901410072060e-01
1.973785079524306360e-02
-1.488014691305473980e-01
3.711041385931483361e-01
6.370086834490079619e-02
-1.454706011887355321e-01
-2.615038888755163993e-01
4.116077140274910229e-01
5.209821818795796755e-01
1.093809232263559389e-01
-2.659768679261673152e-01
-2.667741292776607542e-01
-7.485295018925075539e-01
-1.301289038399010278e-01
1.164408118898227901e-01
-1.563661982603844480e-01
-1.464114108633917388e-01
-1.581484141333336368e-01
-1.429349745408344252e-01
-2.903393642933399521e-01
-2.920554452549538604e-01
-8.163802380344361564e-01
-1.676722909158851194e-01
8.367936593799377154e-02
-5.689651604838277810e-02
-9.001381286027035356e-02
1.790905289882964990e-01
-3.245729340608515257e-01
-5.655700115843457221e-01
-5.413320684535243704e-02
-7.823011823224006456e-01
-1.562809904879504386e-01
-1.660272793672950553e-01
1.015444604954895136e-01
-3.161340431624733993e-01
-3.538936748858220183e-01
2.426433522361216844e-01
-5.052173524227042689e-01
-1.034371171165636011e-01
1.129602129389962739e-01
2.698232252069229786e-01
4.872961229795212956e-01
-1.089156805228853192e-01
-7.641232133670984306e-01
-2.163375448342774454e-01
1.058489818277172194e-02
2.306895661651433768e-02
2.641423034729477037e-01
-2.816131182910044939e-02
-5.161820696084052917e-01
-8.450399229842466831e-01
-9.905733162678168058e-02
-1.080344009690578783e-01
4.932780041335443899e-01
-4.289370523653384670e-01
-1.294060852915691617e-01
7.273168594689663480e-02
2.341039794433315557e-01
-2.371351083118979908e-01
-4.145589813303864890e-01
3.771558930274227645e-02
-1.304442988625315325e-01
-2.615690916307435443e-01
-5.170444848750931355e-01
-6.950920238919064409e-02
6.290675579385323068e-01
1.218002271972460637e-01
5.217051856199204918e-02
-7.969507661846146895e-01
-1.572561211546369131e-01
4.812428203929445397e-02
-6.964624571674535858e-01
-5.036963693626017591e-02
-4.039734205995502703e-01
6.551378816392931792e-02
-6.260925891045124869e-01
1.159367203075423874e-01
3.258892280461199720e-01
3.847500144651614939e-01
1.754017739221784208e-02
-6.283388398999576463e-01
-4.318598218028096847e-01
1.140542550687397849e-01
-1.484187685890069053e-01
1.994045913588020618e-03
-1.003188669979102332e-01
-2.318587366741766964e-01
-9.840437043261851535e-02
1.118450138765842289e-01
-1.154018574153167637e-01
-2.600260999087972147e-01
6.307223040341869424e-02
-1.471411359217225101e-01
-3.224118938156181335e-01
1.040620903003342500e-02
1.392214195709562397e-01
-1.880534298013115946e-01
-1.494269448227324992e-01
-1.147423376375850401e-01
3.278318149271551296e-01
-1.368327265355845090e-01
-1.789290440659542167e-02
-1.060038930844233313e-01
-1.016199454045588896e-01
-1.230721682092834057e-01
-1.167529171529361753e-01
-1.587061032175919317e-01
-1.435445851434503095e-01
-1.285567222771460127e-01
-1.265211518769858712e-01
-1.416288284543791853e-01
-1.201879408136263816e-01
-1.452080465254680375e-01
-1.514627454324232458e-01
-8.055363143204424814e-02
-1.210439395828626086e-01
-1.414552163753592662e-01
-1.085540608369555959e-01
-1.337039069404821479e-01
-4.342369547204829455e-02
-9.913561697904597902e-02
-1.112021675062759424e-01
-1.093290891334397635e-01
-1.234727887354717113e-01
-1.253907402521644288e-01
-1.300524167833724265e-01
4.963349823182107434e-02
-9.358727957943535625e-02
-1.768809553118781686e-01
-6.885364961837006637e-02
1.371831974992104852e-01
-7.890140075766693961e-02
1.346208910827832728e-01
2.474337468725030242e-01
1.466114197371682082e-01
1.496257150046010898e-01
-1.724929484690735093e-01
-1.422526905150939824e-01
-7.475754071012889745e-02
-4.214528507705495031e-01
3.059083738258772112e-01
2.949144457813505649e-01
-1.720868026181735788e-01
1.015650033635544652e-01
-1.221862974016203057e-01
1.277740868774884242e-01
-2.901234461188787958e-02
-1.308064181879280696e-01
9.675968042895596866e-02
-5.648599370653351048e-01
-6.356617099816316285e-01
-5.943522188690595343e-01
-2.937697992000678701e-02
1.494209428640604076e-01
2.449426395410454413e-02
2.194827434314821149e-02
-1.535680599480828412e-01
1.088154618336585749e-01
-1.116183438295889757e-01
-4.047559951609785989e-01
-4.301759214636790424e-02
-1.225478384894930356e-01
-4.164559772624376044e-01
-4.141579213517556646e-01
3.272792111534136295e-01
-2.236005273932102078e-01
1.290730181641650265e-01
-3.558137855826050133e-01
-7.393335799459825608e-03
3.351498183848706236e-01
2.734289538487746918e-01
3.873945738198295019e-02
7.144085124727762859e-02
3.162896729987045574e-02
3.940570977609905018e-02
-1.357667576437660284e-01
3.536901105636317683e-02
1.939206600911296263e-01
3.862651648222575201e-02
4.324395079976878220e-02
4.547926089382455239e-01
2.563962833879607564e-02
3.708936215660747077e-02
4.617771872111737785e-01
3.166627694018502859e-01
-4.526855847592853865e-01
2.184273666182342810e-01
2.066629864094410574e-01
4.615300313932532011e-02
-1.267415229509699648e-01
2.977002073720665803e-02
2.006042339809846198e-01
2.060948686606019487e-01
-6.834533267022601111e-01
2.561089950171787089e-01
-4.006736373424261699e-01
-1.920896125928535647e-01
5.421230570350107913e-02
-1.103988184408068694e-02
-5.863911744854336666e-02
-4.822083435086271797e-01
-3.008611737382572149e-01
-3.989318339216766374e-01
-1.551364239111195087e-01
-1.561847805686506774e-01
3.327347134192843586e-02
-1.562940843848104056e-01
-1.503496382710919066e-01
-1.534408868775301825e-02
2.718233877034506932e-02
-1.410155699597677170e-01
1.594946445600595522e-02
-3.708731612729697646e-01
-2.805010834313462764e-01
-1.441801140512822266e-01
4.843845616146908589e-02
-7.836717436166762418e-02
-2.785538038725873244e-01
-4.392057761775868506e-03
-3.692685612159835040e-01
-6.163679296803310087e-02
-2.019279551412490326e-01
1.897149293651675603e-02
-1.625613045134997534e-02
