-2.006200488643484769e-01
-6.148427365238549880e-02
-5.586739075570258395e-01
8.283407210477871097e-01
-5.264186333265001849e-01
-4.897887664785898210e-01
2.344243660521702355e-01
-4.627813926864676741e-02
3.927865767247245565e-01
2.794928257833632634e-01
-1.820977794206425360e-01
3.607261142541216548e-01
-4.451065128644098867e-01
1.680007648838071355e-01
-6.726853622128108334e-01
3.004233463479474286e-01
-6.838313138522772450e-01
-1.343914002329604229e-01
-1.569541204350269337e-01
-7.324377752852893053e-01
-4.664210822129503109e-01
-1.605853990657752917e-01
-2.553581994514264597e-01
4.569041125631099765e-01
3.130440029279765723e-02
-5.151098356681732549e-01
-3.071688270164928403e-01
-4.776001976396049981e-02
2.133991820884970081e-02
3.211466803538122750e-01
1.257505672249573971e-02
-3.611683121098843152e-01
2.625492198395522614e-01
6.698839737180286580e-01
-3.147236206591134122e-01
5.857421053743854245e-01
1.016400688966849070e-01
2.590510219701440686e-01
7.151541804884145592e-02
-6.102950413249532691e-01
-2.831596960452716916e-01
-1.942181808703112855e-01
-8.070251800887950910e-02
-1.636577359297664847e-01
2.137420886720531044e-01
3.262076380750457139e-01
3.053386715389262013e-02
-2.567603202139832619e-01
-8.519747291343291451e-01
-9.326562770522139889e-02
-6.785788201080577009e-01
4.730379702176279455e-01
1.892388977640590553e-01
2.102687546522854778e-01
-3.942150064535305254e-01
-7.592172393871993163e-02
3.588833366499473432e-02
-1.268909612865453673e-01
8.511136184069627297e-02
2.427075952498331524e-01
-5.789549873876187469e-01
-4.855189407820383884e-01
-5.288340735687645511e-01
-3.225585633628692550e-01
-3.172608906131399453e-03
-1.960059628196255122e-01
6.078422534391981769e-01
-5.798682403949855235e-01
-5.549072590345600214e-02
-2.026993341886448863e-01
-1.333678238141265127e-01
-7.997909704087475917e-04
-4.403354774784781211e-01
-7.498198335774960976e-02
-4.734903978960509907e-02
-3.294904639306061034e-01
-5.004651472933734357e-01
-3.327781156166279702e-02
8.912621283167972142e-02
-1.676314486907836965e-01
-2.833434698503368154e-01
-6.620880823157636597e-01
-2.903179736084574580e-01
1.761297522814122551e-01
-3.492910603153639437e-01
1.613392787530023298e-01
1.633874129002738096e-01
3.527488270971443352e-01
3.353772175950947565e-01
2.912196298917392734e-01
-7.675997972515216650e-02
-1.991025408007648656e-01
-1.366871108216305142e-01
6.908339131992856375e-02
-2.943636787195782478e-01
2.112502334491768163e-01
6.900536309420937653e-02
-1.416540348798110138e-01
-5.362610394466212071e-02
-4.904489805519311463e-01
-5.299089528685707595e-01
-9.488266182337909971e-01
-1.321166872523211371e-03
-8.883182460282643689e-01
-2.774184621316631016e-01
-1.847773924541228630e-01
-5.362165537488950973e-01
3.652776631648779054e-02
-3.854750544842404647e-01
-4.731689430874199132e-01
-3.556362066857863269e-01
5.069811804553718548e-02
2.313402126987734175e-01
-4.570232567128676981e-01
-8.913354933746771291e-02
-6.640566401835569232e-01
3.143962375158532718e-01
7.642542146559815341e-01
2.878274660398002505e-01
-1.417241565239125145e-01
-2.915909373920055336e-01
2.144455876068150357e-01
-2.531171896075414818e-01
-4.018801682245390916e-01
-2.728176412320685307e-01
1.506836989667266757e-01
6.965754577753858756e-01
1.955162313092461985e-03
-9.977779593921511925e-01
4.762243028430312441e-01
1.388138734240165484e-01
-3.038139050525305307e-01
-3.625165298799330471e-01
-5.544513184726976296e-02
-1.941515559607455699e-01
2.004071192405267321e-01
7.130350178370187253e-01
2.094612012489000807e-01
1.523635078978526070e-01
6.463700282281906184e-02
-1.523112458724459883e-01
-5.179081202509766557e-02
3.450856283011223824e-01
-1.694718034688543484e-01
-2.778657631571120404e-02
-6.643921406769123274e-03
4.469934401602538299e-01
-7.086388405933148615e-02
-6.406512936868080654e-01
7.107896646629002779e-03
4.230972087131968512e-02
5.501794097358078117e-01
-7.082918487670023522e-01
-1.619273882556136746e-01
-6.069370213194327235e-01
-3.887841711830364311e-01
2.072291124671566953e-01
1.579234452893830964e-01
1.542496201566037339e-01
-2.781375386079935549e-02
-1.274348248260565031e+00
-3.070384513795534898e-02
-6.538325248593362948e-01
4.834270531506277835e-01
2.285890133225138010e-01
1.606827025896861716e-01
-4.139729932728757333e-01
-2.400766890311688273e-01
-3.985148549080341773e-02
4.595533265433002224e-01
-2.827551141040452465e-01
-7.422544498756831199e-01
7.856144126668876959e-01
7.712865183341127695e-02
-2.618695205429191764e-01
4.530433130321659223e-04
-3.273543234644072930e-01
-1.256077606401361790e-01
-6.064356018223274747e-01
1.947982726491721828e-01
-1.777682766257673297e+00
-7.307718333288945600e-02
-2.725927700941385146e-01
-1.352947176602161961e-01
8.637121035373489242e-02
-1.748500994109442874e-01
8.223781250753828265e-02
-4.308866849208250333e-02
2.360372193108734723e-02
-1.655274629390129926e-01
-9.855704574621428071e-02
-1.639659906162868053e-01
-1.428712901123276313e-01
-8.261364004753136703e-01
-1.869738642092803882e-01
-1.161495525138256379e-01
-3.935092358524401313e-01
-6.171494901759028151e-01
-6.537160434694534450e-01
4.272457902917590200e-01
-7.132513899247352462e-01
-1.184496149243329688e+00
-2.528682926453994506e-01
-2.989538068687505601e-01
-6.308357724634593433e-01
-1.332312278159690555e+00
-4.064399574722750708e-01
-1.078529494738068167e-01
-5.144268599860939428e-01
1.821281761477194505e-01
-4.144076638813408708e-01
-6.516659798305227125e-02
4.118081653252702590e-01
-4.999653021441430312e-02
-2.053940628951227143e-01
-7.926274918517531298e-02
-5.082685538060260910e-01
-3.456481044266379588e-01
-9.128124657033567790e-02
2.508943915618336296e-01
5.897604433771145606e-03
-5.418421783360607424e-01
-5.143868672614716475e-01
-8.094576891555450571e-01
4.171763089802422164e-01
-2.371965480849982655e-01
-2.042001428077572511e-01
-7.830801530475786087e-01
-9.135112070736773893e-01
-8.647277583219337149e-02
2.079397330296579513e-02
-1.227727955557167960e-01
5.382319243558115751e-01
-7.038583195771100920e-01
-4.700479969802237590e-02
-4.336919944549344486e-01
3.459054414139196496e-03
-1.548743522210994650e-01
1.561081690122855248e-01
2.244764186499397240e-01
-1.561690650921016554e-01
7.939182241779156879e-01
-1.944338415972302336e-01
1.128601706580218689e-01
-9.284443187973283329e-02
-4.546512100666688094e-01
6.397501775170824634e-02
-4.038248195595102175e-01
3.006421740667263309e-01
2.601599882946421527e-01
4.096315642427729442e-02
5.272937292726546099e-01
3.189646018447522824e-02
-7.191596542539427928e-01
-7.104803005233445434e-01
4.589130293669780314e-01
7.034834263708385216e-02
1.427638634873456269e-01
1.373870706826346710e-01
5.405465369699179456e-01
9.187400324880299340e-01
-4.421967163290432823e-01
6.306600941140905192e-02
3.230057465309892351e-01
-9.443901272480079157e-02
-5.228246676944537930e-01
2.611763109704932084e-01
-5.949494599281146545e-01
-8.532429606263954858e-01
7.815961925748831085e-01
-4.178713408916551186e-01
1.137582794938596931e-01
-1.061120098951345014e-01
5.013109162990542211e-01
-6.476324547542996468e-01
-3.092572270614325769e-02
-1.936690660617003124e-01
3.221510416119882092e-01
-2.260697701535243909e-01
2.329267502510897758e-01
-1.790195929645353734e-01
9.579120131738801114e-02
4.432977995957516626e-01
2.199026822035060006e-03
1.270079542233076494e-02
1.521049274257851858e-01
4.178707663262430927e-01
-1.911035303812612940e-01
-5.881200639529828855e-01
-4.856030286938071705e-01
2.426525518371069889e-01
2.281165043964938077e-01
-6.952356331362775643e-01
1.023485178398715056e-01
6.303418030342040623e-01
1.836231592767443022e-01
-3.650831835349658827e-01
5.285130136919362343e-02
-3.365842620696505860e-01
5.708329204985492789e-01
-1.486100500930552515e-01
-7.054393469729068888e-01
-1.596947721427371403e-01
2.813701276905140186e-02
-5.826780900226077309e-01
3.498217516595596849e-02
-6.657382211372359082e-02
-3.098751807640466593e-02
1.954799548021654218e-03
2.025157802456300227e-01
-6.719144531882777216e-02
4.471322936740977361e-01
-2.028056449744655709e-01
1.307583544005570531e-01
-7.915149360021322966e-02
-7.426000004812637334e-01
2.738717874912178218e-01
-3.667357182372625677e-03
1.992201851498124829e-02
2.041298647038860270e-01
-3.657822171589109606e-01
6.911182452912424667e-03
-1.876166435886610084e-01
7.916840155665054723e-01
-6.522772183379333955e-01
-4.978932575154275120e-01
-4.556084016068696618e-01
-2.621722864914642903e-01
-4.346507299950906344e-01
7.102633095478275704e-01
-2.306815024812708670e-01
5.313000833306656956e-01
-9.967092750952502578e-02
-2.871925451553923314e-01
7.063954725815596580e-02
-4.072431811058037088e-01
3.874238264448246483e-01
-1.117844204874417491e-01
1.493625467689066733e-01
4.642265288083690516e-02
7.443399362221463367e-01
-4.815571340387941324e-01
7.852072828752190703e-02
-7.208229616779976423e-02
-3.603331962983903625e-02
-3.903962889877976572e-01
-2.209424164803180657e-01
5.749573033524085774e-01
-2.115207607368798370e-01
2.341946789266689533e-01
5.527529998834045388e-01
-4.428310740955432867e-01
-2.468008899800580580e-01
-1.669445712147186733e-01
7.052828108536999263e-01
-1.632284101936531673e-01
7.311381174828276430e-01
-2.053574441363366365e-01
3.223424424265954880e-01
-4.158244937665101122e-03
-1.590440968930109944e-01
2.826867302682764538e-03
-6.596154912107053958e-01
2.402396749796908426e-01
-2.510761499829641807e-01
8.703579860412694602e-01
6.924875240979766478e-01
-2.031364597549254469e-01
4.039981704088887460e-01
-2.380215686533148078e-01
-4.641963056267329329e-02
7.971679876372167461e-01
6.445437896193457160e-03
-3.836727063323042697e-01
-2.759017928666401137e-02
-1.730474604899269464e-01
2.115014857649742952e-01
-1.809440756817838059e-01
1.215241390730067289e-01
-7.505397792340398055e-01
7.389122277078293173e-03
-2.798524910881724503e-01
1.592971944679767993e-01
5.977700354708653796e-01
-5.664255250961308663e-01
1.707256836319270554e-01
-6.098780209259631047e-01
4.849319256097826547e-01
-1.479200781497304884e-01
-2.221554493214616954e-02
-1.636191424246094261e-01
1.431081510589718442e-01
-1.687243609166234060e-01
3.018467032592888066e-01
6.727276773298848656e-02
-7.773046530811213162e-02
-2.588863758105244273e-01
-2.434915274518384964e-01
-4.901764710953791515e-01
1.042806032380197839e-01
-6.335309719952996188e-01
3.751684035193165317e-02
2.223187774211522749e-02
-2.673679391620747969e-01
-1.603018887345459831e+00
-2.502421316459278455e-01
-3.324899244824382483e-01
2.795387577149252012e-01
-5.073020488646131643e-01
-5.175454607687646202e-01
-1.539942357750967716e-01
-8.718211523367808136e-02
-4.785428045241938572e-02
2.928991821540814500e-01
2.353136313359213694e-01
1.840743494294850291e-01
-2.644224507348882369e-01
-8.101886074446741359e-01
5.355127237304926208e-02
1.715762280090587788e-01
-2.619889808121887986e-01
-1.781766990419469121e-01
-3.764370549704950525e-02
-9.975481344509298798e-02
-6.249925979947389409e-01
-2.546961858245627153e-01
1.188178779293173504e+00
5.039836144669439522e-01
-3.175130558172825634e-01
-3.040007221709222773e-01
-9.115380333651490474e-02
6.655545970705531444e-02
-2.473228361075269222e-01
2.261493445744587882e-01
-2.564739968782608903e-01
1.548034281998789952e-01
-2.241295402372142642e-01
4.422746103339997292e-01
4.500555538238514702e-02
5.188961340959797885e-01
-4.073725789655626567e-02
-5.024810435712485646e-01
2.747951887313845182e-02
4.011636652860774144e-02
-1.649259667921940897e+00
-7.500969806744818280e-01
-1.267210183047533245e-01
-3.344455316357093921e-01
-1.135787914868421206e-01
2.379093271253566733e-01
-4.477377037880934663e-01
-4.393313813436690030e-01
-3.760325833994130340e-01
-9.629171256736756002e-01
-2.592634935273285257e-01
-2.502056391327481810e-01
3.555910957173071818e-01
-1.824205709804813946e-01
-2.613612052729828994e-01
-4.165467098495195808e-01
-5.465520731434699853e-01
3.252038537118408512e-01
-7.038178341740382038e-01
4.240470232641785908e-01
-6.174137929656448032e-01
-2.830684485998267719e-01
-1.464306678850639531e-01
3.398039354238715365e-02
3.674249134481094581e-01
-1.317009636441166531e-01
-6.885232565737360588e-02
7.606293945437575532e-01
-7.565276844754745267e-02
6.772430155852882105e-02
-1.479910452406259513e-01
-1.248985491650890234e-01
9.937344692866321161e-01
-4.001602752784365058e-01
-4.511460422445722762e-01
-3.602359480993335694e-01
1.054441105640562815e-01
-4.272352220417452440e-02
-7.003606661247159249e-01
8.527210203713773973e-02
-5.300355804495239243e-01
-2.793048660528657523e-01
-5.559664559127173306e-02
-6.195639544349165195e-01
4.896559596832018024e-01
-1.005954788835455638e+00
-1.062695395992891700e-01
-6.927825342456312985e-01
-1.008159419873628088e-01
-5.931486056530212159e-02
2.801801619633241813e-01
-6.346435089141473362e-01
-3.399077975587417866e-01
-6.102327580924193917e-01
-8.358501935823464679e-02
-2.291820401672003404e-01
2.473152430615124797e-01
1.502858048028636248e-02
1.871815269961019934e-01
5.625559474010950745e-02
-4.101867514238872192e-01
-1.464026483074060137e-01
1.184468063925649517e+00
-3.547528588310565334e-02
-8.934945980647038821e-01
-4.942972121622767889e-01
5.135689914677004086e-01
2.378747865039747278e-01
5.256412375281173111e-01
-7.587624168025945692e-02
-4.243067589529297967e-01
9.141211788330395882e-02
-2.237665070181301674e-01
2.154895367286518981e-01
8.879906587666446249e-01
-1.828301067781011313e-01
-6.726586811311168201e-01
1.229027151785688915e-01
6.035074263800539462e-01
-2.432333968454677697e-01
-2.653676252064028351e-01
-3.579049714120742243e-01
-2.426175960485874861e-01
-2.510374827864300662e-01
2.594426071101058606e-01
1.231890098945370021e-01
-4.257636843226450529e-02
4.842049580893146299e-01
-3.827001250733583770e-01
7.357127779731676975e-01
5.776159507239204960e-02
-1.867846218786472015e-02
-9.686206371306400609e-01
-5.171979474249019937e-01
1.098877136824562561e-01
1.701188040378261990e-01
1.058094342929323944e-01
-2.786384618681054248e-01
-2.384826883866271174e-01
-6.180105958238459873e-01
-1.411230556555280458e-01
4.961745544673729080e-01
-1.602441965566469076e-02
2.099767076192523424e-02
1.760257963721757746e-01
2.513513113009808730e-01
1.212582650812729229e-01
-3.105435327903745546e-01
2.042563052302999449e-02
-2.141755825962496917e-01
4.094447071998609244e-01
1.282424289253460137e-01
1.075415218031126746e-01
2.373875320807689593e-01
-2.376014178426422707e-01
-3.318930331587719995e-01
-7.674091937085668613e-01
-3.994096289968400715e-01
3.339845550961856868e-01
-2.028041228624537229e-01
5.339982373456130249e-01
-2.303636242934068434e-01
-6.277163117566922357e-02
-8.000770612370492474e-01
-7.975385729801122425e-02
-6.841914651920628643e-01
-6.473666075594798341e-01
-5.474787151006674790e-01
-3.857614653090380430e-01
-3.439495694073148591e-01
-8.283501731345349617e-01
-8.785521113799485415e-02
1.437480251166458334e-01
-8.262196021675496382e-01
-4.436732199127021992e-01
2.272566754488032359e-01
4.864595235991223815e-02
-1.018708356703402762e-01
3.691819851699434940e-01
-1.875953004832295601e-01
-9.637210271567889230e-02
-2.271823668181112976e-01
-2.765691200587584997e-01
1.657319189207793683e-02
-2.422439124910411197e-03
-3.194727664937918044e-01
-1.852484655746556574e-01
-7.850902041594333414e-02
-3.333734965210161105e-01
-3.841073973048939605e-01
-1.309200963238521254e-01
2.587585143107873006e-02
1.246422356347184068e-01
7.849615783757825371e-02
5.884135690022616050e-01
7.508611238542779731e-02
-6.552726012567074987e-01
4.058818186351034196e-01
-3.811012273698861919e-02
-2.867030713848913726e-01
-1.021194548486170812e-02
2.149365077007130975e-01
-2.491990477478011889e-01
-1.854116274068534909e-01
-8.077044617389306236e-01
-1.882145972581779347e-01
1.434440056496157911e-01
-2.533010086667307759e-01
1.847624538529642479e-01
-2.819404518873712129e-01
-1.751390405174249043e-01
1.452790734066804479e-01
-1.082203878131337227e+00
-5.691360658345957502e-01
-2.433194484618329545e-01
3.897093145439443074e-01
1.191177327362326482e-01
-2.347595006596961409e-01
-2.548857413720335696e-01
3.433861059659906040e-02
-5.177588863289408483e-01
-8.092949827286874953e-01
-3.494050039640858585e-01
1.125904950359701395e+00
2.067324732223375372e-01
-2.103251105326223169e-01
-3.370183000916221472e-01
-3.715008880027886318e-01
-5.090073826864082163e-01
-1.368541132848059005e-01
-1.445534307313515454e-01
7.185042385770955553e-01
-1.023169012345017892e+00
-4.113267163571300844e-01
-1.038003026253352612e+00
5.315078278929880051e-01
1.110907582824351147e-01
1.007014569417508526e-01
-7.271211219362844203e-02
5.282821213823466477e-01
4.568015884014018160e-03
-4.645219701496012821e-01
9.047034440293917623e-02
-3.844467646524823978e-01
2.112738542236798633e-01
-5.476610388599831847e-01
-4.621367848318422844e-01
-3.506933507706950781e-01
-1.034257770702896817e+00
-1.235313816675253223e-01
-7.273489661009899798e-01
-9.588784489823941604e-01
-3.733339402817094643e-01
-2.670316194914071906e-01
-6.959419113224665776e-02
-1.069326887186443642e+00
-1.010390216837165067e-01
1.576433359934812650e-01
-3.467809847052185507e-02
-2.347551937284406975e-01
-6.168220685312653107e-02
-1.564556167748477611e-01
-1.182903719203346471e-01
-1.726037078381522857e-02
-5.470980920805050829e-01
-2.262525651207290545e-01
-9.178668500453715517e-02
-2.322758231971751575e-01
1.863210688803912385e-01
9.738121563915530521e-02
-6.707183328205623685e-02
-1.538503930199385528e-01
2.300417805505237667e-01
-4.130558901838221053e-01
-3.038365006624260123e-01
7.392486045541919737e-02
-2.177370725035103483e-01
-3.871227987819644834e-01
-3.565908842354536534e-01
-2.243386983143927371e-01
-1.268654420431964747e+00
4.726685555005377126e-01
1.157349664636800196e-01
1.486856754189737728e+00
8.075700605931596110e-02
-5.657470143683670516e-01
3.348215519821624575e-01
-2.863553771840095519e-01
-7.429730063916394345e-01
1.142494753125419399e-01
-1.391023131673570778e-01
3.655948218814935799e-03
3.562981788344052880e-01
-1.230748487665868085e+00
-3.059182946919731805e-01
-4.666641622780701715e-01
3.626693394869477949e-01
-9.694943183567736877e-01
-7.125212725252715040e-02
-2.557281810870360439e-01
-9.968463872752848787e-02
-2.166071184236380287e-01
-3.282578857519027893e-01
-2.784253628101845957e-01
-1.263859461785871996e-01
-2.106344026944757253e-01
1.114880420197686406e-01
-5.102434006254126519e-02
-6.573956937819556146e-01
-1.160269148460295469e-01
-3.414295686612713876e-01
-7.190152352604198271e-02
3.012456353444679658e-01
1.789749035986763492e-01
-8.257612208999435266e-01
1.459928348698099065e-01
-3.184728858606615531e-02
1.534715236643092728e-01
-6.297576116668589519e-01
-1.113477123059018137e+00
2.446598554361289479e-01
-3.202190174834416148e-01
-5.144677999220135245e-01
4.534303547979636612e-02
-5.877770227606536890e-01
-4.213388625393583720e-01
-7.274715778199644101e-01
2.984169866418258099e-01
-5.996041069659865386e-01
-4.420643503554230191e-01
-4.432663311535528505e-01
-5.271748686105741655e-01
-1.933127995517888997e-01
-2.676031002461140562e-01
-3.148305149655085677e-01
-1.050341023331856083e-01
-3.013834102649573521e-01
-2.765080423798426112e-01
3.716147655970734875e-02
-1.977486611243549908e-01
-9.591342337872355017e-01
-3.549140675784180909e-01
1.565483550661008749e-01
-4.283587076685808070e-01
-3.750202257884092949e-02
-1.950609170535901049e-01
-2.538180377562054835e-01
-2.105001176903159299e-01
-4.336555630129022010e-01
-1.805730702800288079e-01
-3.288456234077795082e-01
-3.523605670378597288e-01
-2.603159710630142953e-01
1.886563452740205038e-01
2.794304779923904580e-01
-3.980619941926478167e-01
-7.158225852771522568e-01
-6.342801404653142239e-01
-1.753387906085789039e-02
-2.777880073866513880e-02
4.109706412656214530e-02
-5.332322197156178500e-01
4.101749275934924444e-01
-4.314750927135679315e-01
-2.139641333491466291e-01
6.330261945811376245e-01
2.874595274515309717e-02
5.537300931253709146e-01
-5.764880655253087349e-01
-1.558455648968654739e+00
3.488113238249518355e-02
-2.590550021758739607e-01
3.383589478991605448e-01
-7.719343835849497015e-01
3.319596516484700222e-01
-3.715987374388280973e-01
-7.401374933129782618e-02
-5.908518695087545680e-01
5.477429947144279998e-01
2.823980165309351587e-01
-2.654344614499431487e-01
-5.288401288280645401e-02
-3.887161542048452323e-01
-3.046093589636753030e-01
-1.166741472262171064e-01
-4.362240063068157925e-01
1.563416212324083010e-01
-2.516457759535015715e-01
-2.920140811788210153e-02
3.122716245759637466e-01
-3.164951228755257806e-01
-1.369833965251177621e-01
-6.402503693555766651e-01
-3.927657783962633653e-01
5.190278586725747406e-02
1.209351251494601154e-01
6.650679853610677039e-01
9.685089789774736779e-02
-1.121361491469873434e-01
5.669066956816840724e-02
-2.256792926465211735e-01
-1.520241971797179903e-01
1.777147635938398085e-01
6.163608223128340668e-01
-7.739895635223328907e-02
1.052468929145094823e+00
8.209217039120967341e-01
1.288012251787444551e-01
-3.299099933102844773e-01
-4.578467881481392832e-01
-2.625716424392193216e-01
6.081799386559230136e-01
-1.215848044193191535e-01
-1.366211685057900915e-01
2.962820431833781964e-01
-5.673056729480526750e-01
4.725473969280505893e-01
-4.828418400486435003e-01
7.346593241462172352e-02
-5.359957604836195211e-01
2.948474896963874589e-02
2.439561085743542912e-01
-2.705017757773319209e-01
-6.630633931070403220e-01
-3.057889965447002645e-01
-1.376542893477497032e-01
-2.812602400085881249e-01
-2.835731238799650833e-01
-8.070639036591448212e-01
1.618181960718897694e-01
3.027972500595210170e-01
-1.817298286550323438e-01
-5.377273865942873154e-01
1.846105800886261028e-01
-4.091944758185626640e-01
2.081505455560350715e-01
3.979829034042302038e-01
1.356655536344512358e-01
-9.274221485674105647e-01
-3.167311486244901997e-01
-6.013769114499808444e-01
5.140541124770676290e-02
-7.472348964348921596e-01
3.779979931921777503e-01
1.131204204667628055e+00
3.708313570744888876e-01
5.143219037152302331e-02
8.467751397760868437e-02
-4.304522460760086267e-01
-5.972302045993598263e-01
-6.443540762452112380e-01
-4.943437727610235088e-02
-1.391476474874303038e-01
-2.691866385106693738e-01
4.044200428183245544e-01
-3.976075284925534858e-01
2.717709927347450871e-01
6.684273364913111415e-01
-3.432769942350335501e-01
7.272918694708796483e-02
-1.121813523306783855e+00
-1.134316654523981116e+00
3.785351687123308384e-01
-7.679102367024850384e-01
-6.640533309422178565e-01
-4.101017283758174869e-01
-2.751496319517802713e-01
-1.153797175348278137e-01
-4.600376782096246564e-01
-1.054859146383618357e-01
1.464189060797349007e-01
1.907818375816004164e-01
5.504762526628522584e-02
-6.998796636186819242e-01
9.332962876028311205e-02
7.142569101373639172e-03
-3.393572878766926149e-01
2.746966788024977069e-01
2.201004678028849471e-01
-2.803482361200863027e-01
-5.384295573610261565e-01
-3.905556235611597482e-01
2.622488642727679453e-01
4.574416986433756938e-01
-3.443140009880354402e-01
-2.202955338147361553e-01
5.906002864901485072e-01
2.277929276084637855e-01
7.012808672492455708e-02
-5.127175968069466738e-02
2.248605014053305928e-01
-7.923609381231379034e-01
2.339986301624041864e-01
6.006326671391491040e-02
-4.171394445961563169e-01
-1.096919726114540694e+00
6.605331842737376113e-02
-5.546751633207014365e-01
-2.960775094265740912e-02
-1.144081132801219244e-02
-2.747322527600035147e-01
1.432125771624284949e-01
9.008337283173869503e-01
-4.122622633444935070e-01
6.263716262751918284e-01
-6.011369291590054065e-01
1.220652094526105281e-03
-2.643538023134302528e-01
-5.859771142043327385e-01
-4.757026053985882186e-01
-5.842050194308470168e-01
-3.250818607747260058e-01
-1.748685584584917449e-02
-6.538998529245401148e-01
-1.057436665292593309e-01
-4.390530124598610584e-01
-6.176700169135677099e-01
-2.629176899036364534e-01
7.457330947463121085e-01
-1.768700521556802185e-01
-2.363680603557440640e-01
-4.050815367228423058e-01
1.443616562959944838e-01
9.346831207558049526e-01
-5.498352773996327825e-01
-6.250677685985933651e-01
-5.062423906617607994e-02
-1.889919216001456626e-02
-9.573711291339739304e-01
-1.010573019157928049e-01
2.965932515507204714e-01
2.352352175873003437e-01
-4.985126976906804064e-01
-1.766103233955282348e-02
8.735596329786893266e-01
-3.957180739868736974e-01
3.209568940291268047e-01
3.053419066620220446e-01
-1.812684741709806313e-01
